{"type":"LSTM","options":{"inputSize":44,"inputRange":44,"hiddenLayers":[20,20],"outputSize":44,"decayRate":0.999,"smoothEps":1e-8,"regc":0.000001,"clipval":5,"maxPredictionLength":100,"dataFormatter":{"indexTable":{"0":34,"1":28,"2":26,"4":33,"5":27,"6":31,"7":32,"8":29,"9":30,"h":0,"e":1,"y":2,"N":3,"o":4,"n":5,"w":6,"a":7,"t":8,"s":9," ":10,"u":11,"p":12,"m":13,"r":14,"f":15,"O":16,"g":17,"l":18,"V":19,"c":20,"b":21,"i":22,"?":23,"d":24,"F":25,"S":35,"/":36,"q":37,"k":38,"x":39,"j":40,"stop-input":41,"start-output":42,"unrecognized":43},"characterTable":{"0":"h","1":"e","2":"y","3":"N","4":"o","5":"n","6":"w","7":"a","8":"t","9":"s","10":" ","11":"u","12":"p","13":"m","14":"r","15":"f","16":"O","17":"g","18":"l","19":"V","20":"c","21":"b","22":"i","23":"?","24":"d","25":"F","26":"2","27":"5","28":"1","29":"8","30":"9","31":"6","32":"7","33":"4","34":"0","35":"S","36":"/","37":"q","38":"k","39":"x","40":"j","41":null,"42":null,"43":null},"values":[{"input":"hey","output":"None"},{"input":"whats up","output":"None"},{"input":"m or f","output":"Omegle Vocab"},{"input":"r u a guy or a girl","output":"Omegle Vocab"},{"input":"u m or f","output":"Omegle Vocab"},{"input":"are you m or f","output":"Omegle Vocab"},{"input":"male or female","output":"Omegle Vocab"},{"input":"are u a girl?","output":"Omegle Vocab"},{"input":"are u female?","output":"Omegle Vocab"},{"input":"are u a dude","output":"Omegle Vocab"},{"input":"are u a boy","output":"Omegle Vocab"},{"input":"are you a dude?","output":"Omegle Vocab"},{"input":"u a boy or a girl","output":"Omegle Vocab"},{"input":"are you a dude or a girl?","output":"Omegle Vocab"},{"input":"are u a boy or a girl?","output":"Omegle Vocab"},{"input":"f or m","output":"Omegle Vocab"},{"input":"a girl or boy?","output":"Omegle Vocab"},{"input":"r u a girl or boyy??","output":"Omegle Vocab"},{"input":"F25","output":"Omegle Vocab"},{"input":"m18","output":"Omegle Vocab"},{"input":"m 29","output":"Omegle Vocab"},{"input":"f 16","output":"Omegle Vocab"},{"input":"male 27","output":"Omegle Vocab"},{"input":"female 19","output":"Omegle Vocab"},{"input":"boy 18","output":"Omegle Vocab"},{"input":"girl 14","output":"Omegle Vocab"},{"input":"im f20","output":"Omegle Vocab"},{"input":"im m26","output":"Omegle Vocab"},{"input":"you send your pic and me","output":"Sending/requesting Nudes"},{"input":"can we see other pic","output":"Sending/requesting Nudes"},{"input":"send pic for your dick","output":"Sending/requesting Nudes"},{"input":"send pic?","output":"Sending/requesting Nudes"},{"input":"share pics?","output":"Sending/requesting Nudes"},{"input":"lets exchange nudes?","output":"Sending/requesting Nudes"},{"input":"just show me your boobs","output":"Sending/requesting Nudes"}],"characters":["h","e","y","N","o","n","w","a","t","s"," ","u","p","m","r","f","O","g","l","V","c","b","i","?","d","F","2","5","1","8","9","6","7","4","0","S","/","q","k","x","j","stop-input","start-output","unrecognized"],"specialIndexes":[41,42,43]}},"trainOpts":{"iterations":200,"errorThresh":0.01,"log":true,"logPeriod":10,"learningRate":0.01,"callbackPeriod":10,"timeout":"Infinity"},"input":{"rows":45,"columns":44,"weights":[-0.8036205172538757,0.6055214405059814,-1.120974063873291,-0.8652684688568115,0.5545503497123718,0.11419092118740082,0.5154417157173157,-0.36948782205581665,1.0965877771377563,-0.4230373501777649,-1.4322994947433472,-0.6875594258308411,-1.1579937934875488,0.11141318082809448,-0.5168799757957458,0.3447665274143219,0.7808766961097717,0.09119098633527756,1.194770336151123,-0.5533535480499268,0.6715553998947144,-0.5086863040924072,0.7808240652084351,0.8743472695350647,-0.919733464717865,0.46021825075149536,0.34779730439186096,0.7307506203651428,0.49233195185661316,-1.1652331352233887,0.03302552178502083,0.12773244082927704,-0.4848126769065857,0.25475215911865234,0.919805645942688,-1.5447274446487427,0.36552152037620544,-0.2654261291027069,-0.6931917071342468,-0.9500324726104736,-0.46238937973976135,0.7133067846298218,1.208000659942627,0.8305063843727112,-2.3386881351470947,2.5183448791503906,-5.311867713928223,-3.4043612480163574,2.161573886871338,2.5902719497680664,2.776090383529663,2.275624990463257,5.610279083251953,-5.974034786224365,-3.534064292907715,-2.9025838375091553,-2.647569417953491,1.9160834550857544,-0.7160075306892395,-2.7920196056365967,-2.5184197425842285,-1.7275656461715698,1.024218201637268,-4.307059288024902,7.422621250152588,-3.7132816314697266,-2.0652663707733154,2.787041425704956,-0.4858076274394989,1.981591820716858,-2.2218754291534424,2.168978452682495,2.023955821990967,-3.6598968505859375,-2.2983438968658447,2.901952028274536,-3.108067035675049,-2.969193935394287,3.559039831161499,-1.2289245128631592,6.061698913574219,-2.8442447185516357,-2.8919293880462646,-1.5982404947280884,-2.3588082790374756,2.9616081714630127,3.629330635070801,3.6121833324432373,-1.1153229475021362,0.5870490670204163,-0.09271163493394852,-1.6531951427459717,0.809356153011322,-0.8080495595932007,-1.538456916809082,0.44495272636413574,0.8680163621902466,-1.3415272235870361,-0.9011924266815186,0.5673320889472961,-0.09351297467947006,-1.0259443521499634,-0.12636364996433258,0.6230415105819702,0.5909998416900635,-0.43617403507232666,0.14254382252693176,0.5912246704101562,0.49939215183258057,0.02507183328270912,-0.6144381761550903,0.2898353636264801,0.9254286885261536,1.052840232849121,-1.0121670961380005,1.6285266876220703,-0.34753796458244324,0.31920307874679565,0.04630669578909874,-0.6526364684104919,-1.7525358200073242,-1.0154486894607544,-0.972981870174408,-0.1040910854935646,-0.06434855610132217,-0.38190367817878723,0.2340693473815918,-0.46037405729293823,-1.7871644496917725,-0.08635348826646805,-0.3413844406604767,2.737288475036621,0.34184911847114563,3.315056562423706,-0.19828398525714874,-2.173189163208008,0.11596392840147018,2.157338857650757,2.3128535747528076,-1.5918643474578857,0.36197346448898315,-0.5969191193580627,-0.8586571216583252,-1.2626252174377441,0.2667773962020874,2.500244617462158,-1.5129578113555908,0.24867378175258636,-1.252315640449524,0.387740820646286,-1.6195979118347168,-0.5053220987319946,1.68864905834198,-2.716874361038208,1.2127392292022705,-0.7130334377288818,0.1931837797164917,1.9147940874099731,1.9767212867736816,1.5623164176940918,-0.9640558362007141,0.5408264398574829,-0.26447367668151855,-0.7877876162528992,-2.4048995971679688,-1.4831291437149048,-0.34921151399612427,1.0978461503982544,0.2939396798610687,-4.173443794250488,-3.1404645442962646,-0.5302003622055054,-3.312948703765869,1.0557429790496826,0.16217905282974243,2.7409746646881104,3.9062769412994385,1.3702772855758667,-0.31919002532958984,-1.0553630590438843,-2.1708340644836426,-1.2625596523284912,0.6710186004638672,-1.5735927820205688,1.0447906255722046,1.486857533454895,1.5421043634414673,0.21419599652290344,4.742494583129883,0.3257143199443817,0.8635507822036743,5.80912971496582,6.308712482452393,-3.6021065711975098,-4.990968227386475,4.065176010131836,0.06562627851963043,0.34240689873695374,-1.2019319534301758,-6.35195255279541,-0.9124035239219666,-1.8675206899642944,0.8486340641975403,0.6546520590782166,-7.085130214691162,3.607450246810913,4.510478973388672,-5.370381832122803,-1.1590081453323364,3.5373635292053223,-2.351391315460205,2.4806487560272217,-1.1290615797042847,0.3486645519733429,1.4861856698989868,3.4678776264190674,4.328199863433838,1.1938433647155762,1.8348218202590942,-2.2912418842315674,-1.5708491802215576,1.0086344480514526,-0.19195115566253662,0.6276019215583801,-0.3286488354206085,-0.4483147859573364,-0.005048451479524374,-0.4558327794075012,-0.41701680421829224,1.5983768701553345,0.1658979207277298,-1.0529924631118774,-3.3129844665527344,1.8139302730560303,0.296301931142807,-0.29108697175979614,-1.1805713176727295,0.176800936460495,1.716572880744934,0.0890590026974678,-0.5250900983810425,-0.939420223236084,1.2882336378097534,3.196632146835327,-1.7225972414016724,-1.823113203048706,1.4532346725463867,-0.5163881182670593,1.1422477960586548,-0.4796673357486725,-2.4914095401763916,0.14362478256225586,0.9071136713027954,1.1446858644485474,0.9268327355384827,0.2901597023010254,0.6510489583015442,-1.5840784311294556,-2.640928268432617,0.33063259720802307,-0.08262179791927338,0.008471298962831497,0.8337781429290771,-1.7844804525375366,-2.0165791511535645,1.5963590145111084,-1.3948609828948975,-1.438894510269165,1.3745238780975342,0.9369356036186218,-1.6544814109802246,-0.6395047903060913,1.5393359661102295,-2.36124324798584,-1.9262374639511108,-0.4909404218196869,-0.9281882047653198,0.38195639848709106,-0.719551682472229,-2.2261879444122314,-2.411435604095459,0.8521266579627991,1.4299147129058838,-1.7020107507705688,1.2586368322372437,-0.767087996006012,0.6283401846885681,1.0156439542770386,-0.8904021382331848,1.547790288925171,0.1170235201716423,1.7192339897155762,1.8023996353149414,-1.4688212871551514,-1.796880841255188,2.2216665744781494,-3.583470106124878,-0.6410086154937744,0.40303224325180054,-1.9158984422683716,0.7970870733261108,-1.3958808183670044,-0.6718499660491943,-2.6365628242492676,-1.7564036846160889,1.4300930500030518,1.573676586151123,3.2889387607574463,1.123100996017456,0.5565716624259949,2.02139949798584,2.0617361068725586,-0.17953728139400482,-5.269885063171387,-8.264349937438965,3.1882712841033936,2.155190944671631,1.539784550666809,0.8603938221931458,5.0939621925354,-5.296804904937744,-3.2427217960357666,4.965327739715576,-7.972519874572754,-4.645298957824707,-2.9013936519622803,5.883505821228027,-5.6339006423950195,-7.696905136108398,-4.05260705947876,2.773677110671997,4.4768877029418945,-4.51965856552124,-3.2994298934936523,2.827871561050415,-1.3037924766540527,2.855119466781616,-5.809852600097656,-4.983795166015625,5.572885990142822,-0.1980379968881607,1.1583489179611206,-1.936046838760376,-8.21056842803955,-3.7068557739257812,0.7867121696472168,0.21377256512641907,-5.844583511352539,3.3448469638824463,3.82127046585083,3.6936564445495605,-1.9823664426803589,0.6013045310974121,-0.9485797882080078,1.3385741710662842,1.1968214511871338,-0.4215124845504761,0.2629445195198059,0.06426538527011871,0.6391739249229431,-0.9657434821128845,-0.43906575441360474,0.5430095195770264,0.027593763545155525,-0.009518398903310299,0.10953772813081741,0.7598652839660645,-0.9717041254043579,-1.409857153892517,0.18546278774738312,1.6920219659805298,-0.6534094214439392,-0.3990068733692169,0.7193598747253418,-0.9922210574150085,0.4696918725967407,0.8463922142982483,-0.4251999855041504,-0.6997879147529602,-1.3016024827957153,2.158933162689209,-1.2609230279922485,-1.267464518547058,1.1425162553787231,1.4075193405151367,-0.8642396926879883,0.022463945671916008,-1.5116205215454102,0.20235194265842438,0.4944862425327301,0.7973808646202087,0.05396152287721634,-0.3464498519897461,-0.7069949507713318,-1.0409739017486572,-1.299919843673706,-2.2361278533935547,2.2039849758148193,-6.121196746826172,-4.1774702072143555,2.149935245513916,-1.1551833152770996,-3.870445728302002,-2.323096513748169,6.214449405670166,-6.998721599578857,-5.809239864349365,2.6546833515167236,0.5686516165733337,-1.7131643295288086,0.2679498493671417,1.7276644706726074,1.7050997018814087,-0.05272994562983513,2.364119052886963,1.7135636806488037,4.8206400871276855,-0.7525432109832764,3.0594377517700195,-0.29761582612991333,-0.44293785095214844,1.4074480533599854,-1.9468210935592651,4.482635021209717,0.2189594954252243,-0.4515515863895416,0.6066707372665405,-1.1999969482421875,-6.266094207763672,0.7508941292762756,-0.27508217096328735,-0.8143638968467712,4.812653064727783,-0.032622311264276505,0.5172876119613647,-1.074101448059082,0.28066486120224,-0.2112547755241394,1.2610529661178589,5.303197383880615,0.41980352997779846,-1.8589595556259155,0.0796474814414978,0.23653773963451385,-1.6987698078155518,-3.3509836196899414,-1.549487829208374,2.8868227005004883,1.5449937582015991,-4.052646160125732,0.7453213930130005,4.851382732391357,0.20015323162078857,-5.658560752868652,1.6363189220428467,-3.609731674194336,0.02230403944849968,-1.4292782545089722,2.9560439586639404,-4.003390789031982,-1.0707229375839233,1.331206202507019,-1.5187592506408691,-0.7536563277244568,1.0003325939178467,2.364549398422241,-1.9319226741790771,0.4189743995666504,2.6893157958984375,-3.8685786724090576,-0.34373781085014343,3.930161237716675,-1.5237470865249634,-2.371814727783203,-4.041522026062012,-4.251809597015381,-3.217475652694702,3.1495096683502197,2.6478569507598877,-2.535935640335083,3.1189770698547363,-0.6097813844680786,-0.6498057842254639,2.3787505626678467,-1.5077276229858398,0.4945346415042877,-0.7078467607498169,-1.1480998992919922,0.38107773661613464,1.0859767198562622,1.0761780738830566,-0.5140535235404968,0.7750111222267151,-0.12064672261476517,-1.1953582763671875,-2.156358242034912,-1.1811511516571045,1.2273553609848022,-0.08642479032278061,-0.5486767888069153,-0.9867554306983948,0.7568758726119995,0.5680387616157532,-0.943984866142273,1.1136691570281982,-0.5905458927154541,1.2824177742004395,1.1450542211532593,-0.6573782563209534,0.23643872141838074,0.41651830077171326,0.24272599816322327,0.795272707939148,-0.6724875569343567,-0.8991250991821289,0.7456628084182739,-0.04765070602297783,-0.4746537506580353,1.7686152458190918,-0.6067249178886414,1.2423278093338013,-1.2596521377563477,-1.9804552793502808,-1.3671437501907349,-1.974840760231018,0.5035269260406494,0.5750271677970886,0.6220608353614807,-1.3164626359939575,-0.9510396718978882,-1.0195059776306152,-0.6110280156135559,0.8881081342697144,1.7021342515945435,-0.11754787713289261,-0.9612327814102173,1.6326947212219238,-1.5322164297103882,-1.5971022844314575,-0.5580139756202698,-0.12236829102039337,-0.30823779106140137,-1.094551682472229,-1.1575891971588135,0.8297417759895325,1.8412222862243652,2.0051023960113525,-1.2552815675735474,1.227449655532837,1.50257408618927,0.25104010105133057,-0.1609228253364563,-0.7168320417404175,1.6101394891738892,-0.343443900346756,0.4892113208770752,1.1554380655288696,-1.7127087116241455,0.11839152872562408,1.6128318309783936,-0.7837483286857605,-1.3878157138824463,1.6950273513793945,-1.8567521572113037,1.5199944972991943,1.305680513381958,0.680242121219635,-1.697690725326538,-0.09511157125234604,-0.0031870424281805754,1.3424463272094727,0.6068451404571533,-1.1164442300796509,-7.457859992980957,3.489076614379883,0.7496844530105591,-1.491117238998413,1.0822306871414185,-8.81973648071289,2.985053062438965,-6.014013767242432,0.9109480977058411,-2.0972769260406494,4.75945520401001,-1.6891132593154907,-8.682211875915527,1.4255720376968384,-4.283129692077637,-2.3641371726989746,-3.600680112838745,0.050138648599386215,-4.493322849273682,-2.148059368133545,10.064958572387695,1.7965564727783203,0.7236499786376953,5.6396613121032715,-0.6836305260658264,-3.3410229682922363,0.6482175588607788,0.14705760776996613,-2.0435261726379395,0.027719033882021904,3.2786991596221924,-1.2076302766799927,3.5752789974212646,-9.127748489379883,-1.6416302919387817,-3.6035549640655518,3.52923321723938,3.949652910232544,-1.212091326713562,0.6911473274230957,-2.4763600826263428,-3.418077230453491,0.26567792892456055,1.8144973516464233,2.179126739501953,-0.4110555052757263,-1.0780364274978638,1.0429620742797852,0.18749167025089264,3.4102518558502197,0.2162923365831375,-0.33808600902557373,0.6800989508628845,0.3556201159954071,-1.0326381921768188,1.271216869354248,3.096513271331787,-1.1525896787643433,0.019917067140340805,-0.49959057569503784,2.378512382507324,0.1550513058900833,0.002924717264249921,0.9963324069976807,-3.132784366607666,0.9287513494491577,-1.1910547018051147,-1.7327852249145508,0.12747277319431305,1.12387216091156,0.4894254803657532,0.24373170733451843,-0.1273532509803772,1.1466373205184937,0.03531929478049278,0.12688757479190826,-0.020498178899288177,1.1116054058074951,0.06928744912147522,1.1040847301483154,-1.3881962299346924,-1.396914005279541,-0.1628887951374054,-1.4844858646392822,1.0978082418441772,1.1386302709579468,0.07769788056612015,-0.7723474502563477,-0.30722564458847046,0.43435969948768616,1.604186773300171,1.3702120780944824,-1.7992053031921387,-2.522035598754883,0.5111095309257507,-0.1766914427280426,-0.7416531443595886,0.9225818514823914,2.7057700157165527,-1.181030035018921,-1.0957756042480469,-0.37819910049438477,-1.174747109413147,1.1399738788604736,-0.30600765347480774,0.9469742178916931,-1.5221554040908813,-0.6198807954788208,-0.09064876288175583,-1.7106837034225464,0.6842548847198486,0.910452663898468,0.9874672293663025,-1.6525830030441284,-0.7957367897033691,1.338142991065979,-1.1024278402328491,-0.776496171951294,1.354998230934143,0.343692421913147,-1.3925127983093262,-2.338444948196411,-0.2264339178800583,0.41691115498542786,0.3559780716896057,0.6981138586997986,-0.27215299010276794,1.5335811376571655,0.4291320741176605,-0.20152783393859863,0.3444024324417114,1.0260958671569824,0.1651618331670761,2.450777530670166,2.463878870010376,-2.75888729095459,-2.111032247543335,-0.20664434134960175,4.059215545654297,-0.7049018144607544,2.041175603866577,3.065777540206909,0.5278714299201965,-2.0661869049072266,-0.514915406703949,4.313826084136963,-0.2584882378578186,0.45081406831741333,-3.154167890548706,2.262850761413574,-1.053419589996338,-2.0199217796325684,-2.2012574672698975,-0.32260340452194214,1.8574144840240479,1.8871642351150513,-3.891676187515259,-1.837296962738037,-4.742988109588623,1.6277340650558472,-1.5235745906829834,-2.390942335128784,0.18095415830612183,4.628927230834961,1.1468790769577026,-1.2179970741271973,-1.3224071264266968,-1.7852450609207153,0.5332978963851929,0.6334421634674072,-0.3030281066894531,1.0743849277496338,-2.512049674987793,-1.7343499660491943,-2.8719213008880615,-0.889744758605957,0.4332418739795685,-0.04686305671930313,0.5478384494781494,0.19150523841381073,-1.1317764520645142,-0.1458391547203064,-2.07916259765625,-1.2803226709365845,0.8850556015968323,0.9151744246482849,-0.21793091297149658,-0.07615075260400772,0.021161383017897606,-0.5774210095405579,0.01564919203519821,-0.14588844776153564,1.1639536619186401,-0.18284468352794647,1.0632264614105225,-0.8128293752670288,-1.0653718709945679,2.370485782623291,0.5262033939361572,-0.8228927850723267,-0.34845876693725586,3.177129030227661,0.8033729195594788,-0.9010828137397766,0.7931326627731323,-0.035692550241947174,-0.02819950133562088,0.3686393201351166,0.6018659472465515,0.12912876904010773,1.0276644229888916,-0.1722000390291214,-0.4635927379131317,-1.354348063468933,0.46611079573631287,0.9294071197509766,0.3176795542240143,0.3533082604408264,-0.4234957695007324,0.7556436061859131,-0.5113013386726379,0.6361868381500244,0.7735391855239868,-0.7858362793922424,-1.0118464231491089,0.1531699299812317,-0.6978954672813416,-1.1073353290557861,1.2793983221054077,1.8676116466522217,-0.20262087881565094,-0.6316445469856262,0.3253568708896637,1.2531664371490479,-0.030038198456168175,-1.313062310218811,0.4447438716888428,-0.17414359748363495,0.2624330520629883,-1.8383092880249023,0.04511096328496933,0.16296769678592682,1.0458829402923584,-0.39683428406715393,-1.3765168190002441,1.7172443866729736,-0.04413100704550743,-0.1650717705488205,0.17477601766586304,-0.6708972454071045,-0.2601148784160614,0.9623501896858215,0.7153803110122681,-0.10100821405649185,-0.021987462416291237,-1.0376406908035278,0.36590269207954407,0.3146951496601105,-0.11617349088191986,0.5872911214828491,-0.3774781823158264,-0.9938569068908691,-1.4021481275558472,-1.2558650970458984,-0.21948400139808655,0.9530045390129089,-0.20772743225097656,-0.2811490297317505,-2.0251307487487793,-1.8781734704971313,0.5637985467910767,0.6441231966018677,-0.5405126214027405,1.1458351612091064,3.371403217315674,0.2297108918428421,-2.0160446166992188,0.9843823313713074,-0.41759684681892395,-0.28007492423057556,-1.759638786315918,-0.5929562449455261,-0.16130894422531128,-0.745881199836731,0.7415105104446411,-0.9955024123191833,-1.0046957731246948,2.1916024684906006,0.06443897634744644,-0.48994147777557373,0.28863832354545593,-1.3602862358093262,-0.5474217534065247,0.4373661279678345,0.18097446858882904,-0.6320725679397583,0.0580536313354969,-2.0242409706115723,-0.18686284124851227,-0.8022368550300598,1.0059521198272705,2.2617011070251465,-1.107755184173584,1.3880176544189453,0.1760871708393097,-0.006048461887985468,0.14726705849170685,-2.930116891860962,-0.22122997045516968,-0.11126280575990677,-0.35550591349601746,0.22135500609874725,0.3362102210521698,-0.9111873507499695,0.14159366488456726,-0.12043479830026627,-0.04765218496322632,-1.0747191905975342,-0.6608127951622009,-0.7720483541488647,-0.000401367899030447,0.6887350082397461,-1.8090438842773438,-2.4081480503082275,-0.19779376685619354,1.0562599897384644,-1.361830472946167,0.09034285694360733,0.46566370129585266,-0.14417216181755066,0.7084065675735474,0.3833768665790558,0.17894883453845978,-0.9115428924560547,0.06574563682079315,0.6331839561462402,-1.1658533811569214,-1.0093841552734375,1.224176049232483,-0.24080444872379303,-0.24733451008796692,0.15995782613754272,-0.19026628136634827,0.8749595284461975,-0.014342064969241619,-0.07259607315063477,-2.4319753646850586,-0.6124387979507446,-1.2358343601226807,-0.15146510303020477,0.6258058547973633,-0.08357615768909454,-0.14062491059303284,0.9150594472885132,-0.11501560360193253,0.930644154548645,1.1075422763824463,-0.1027987152338028,-0.41860586404800415,-0.5052618980407715,-0.7730879187583923,0.14252737164497375,0.15528389811515808,-0.00030399509705603123,0.4829835295677185,-0.693687379360199,-2.4477992057800293,-1.106093406677246,0.20498628914356232,0.2958972156047821,-1.3249634504318237,0.22646011412143707,-0.1942347288131714,-1.0032861232757568,0.22728581726551056,0.9324641227722168,0.878027617931366,-0.7172480821609497,-0.29103341698646545,0.6638035178184509,-0.6313202977180481,-0.549475908279419,1.9937862157821655,-0.17495526373386383,-2.1265387535095215,-0.47473371028900146,-1.124056339263916,1.1025147438049316,-0.41631051898002625,0.20613688230514526,-0.998451828956604,-0.9869614243507385,0.573030412197113,0.2564869821071625,-0.08487635105848312,1.1206289529800415,-1.377256155014038,0.733518660068512,-0.8057353496551514,-0.5546867251396179,0.3487533926963806,1.4063135385513306,1.2964818477630615,0.08085988461971283,0.3436475396156311,-0.3070814907550812,-1.2825825214385986,-0.21158449351787567,-0.429202675819397,2.2305867671966553,-0.0247883852571249,-1.0582501888275146,-1.1962270736694336,1.197005033493042,-2.36794114112854,0.11738527566194534,0.9048240780830383,-0.9534004926681519,0.6173226833343506,1.114094853401184,-1.0195143222808838,-0.41206803917884827,-0.27407220005989075,2.0781023502349854,-1.6440232992172241,-1.0477796792984009,1.178322196006775,1.1618708372116089,0.8429959416389465,0.6043760180473328,-2.6047146320343018,-0.32301047444343567,1.1326384544372559,0.755145251750946,0.40772274136543274,-0.3038671314716339,-0.4975090026855469,-0.6628576517105103,0.6029428839683533,-2.4136877059936523,0.18863892555236816,-1.6704860925674438,-3.7847654819488525,-0.15648922324180603,1.5105290412902832,0.538930356502533,0.8608479499816895,2.559403657913208,-1.3806430101394653,-4.67245626449585,-1.1758757829666138,-0.6002827286720276,-0.049759890884160995,0.36718815565109253,-0.22359782457351685,0.9472936987876892,-0.7553848028182983,1.0036568641662598,0.39974743127822876,1.2476097345352173,0.7770324945449829,2.131293296813965,0.8402391672134399,-0.5108432173728943,-0.279594361782074,-1.3533122539520264,0.8573915362358093,0.3572614789009094,-0.29092198610305786,-0.33422648906707764,0.14839327335357666,-2.1155879497528076,1.2848842144012451,1.1842714548110962,-1.0119338035583496,1.2461121082305908,-0.18948741257190704,-1.7478636503219604,-1.3992277383804321,-2.8637590408325195,0.27442672848701477,1.669303297996521,2.3800268173217773,-0.018735425546765327,-0.31106534600257874,-1.5257247686386108,0.053608935326337814,3.6219701766967773,-0.8829802870750427,0.28054696321487427,-3.205995559692383,1.7519240379333496,0.27653002738952637,0.9165171384811401,-0.1958555281162262,2.4977481365203857,0.6892479062080383,-2.9353294372558594,3.9006762504577637,3.3148837089538574,3.525526762008667,-2.1995432376861572,4.1708149909973145,-1.8009508848190308,-0.08139344304800034,1.232472538948059,-2.8615610599517822,-0.04823702946305275,1.3670958280563354,2.2398605346679688,2.475152015686035,-2.9417059421539307,3.453080415725708,3.6501598358154297,-4.176013946533203,-0.9494985938072205,-2.6706066131591797,-0.9102135896682739,5.0520453453063965,-1.0779412984848022,0.8694454431533813,-0.9554884433746338,1.6972951889038086,-0.5279772281646729,-2.1196203231811523,-3.085681915283203,2.427975654602051,-1.3675321340560913,-0.9068891406059265,-1.8876941204071045,0.41367802023887634,2.7663393020629883,1.3056176900863647,1.1663901805877686,-1.322292447090149,-0.9596708416938782,0.6763413548469543,1.5125211477279663,-1.8768768310546875,-1.0192253589630127,1.8086802959442139,-1.727770209312439,-3.6359965801239014,-2.6289803981781006,1.7606866359710693,1.8898180723190308,-1.9748815298080444,-0.4948063790798187,0.9673412442207336,0.609119176864624,0.8296761512756348,-0.9923809170722961,0.979369044303894,-0.3571968376636505,0.4440807104110718,1.6486207246780396,-1.6222915649414062,-2.1142144203186035,3.1556217670440674,0.9676064252853394,-0.7478508353233337,1.734076738357544,-1.9346976280212402,2.355095148086548,1.2539076805114746,-3.222761392593384,-1.7493820190429688,-0.2620685398578644,-1.5890737771987915,1.6678619384765625,0.17111998796463013,6.82755708694458,-1.216327428817749,5.867040157318115,4.628117561340332,-6.464043140411377,-4.643641471862793,3.5610482692718506,3.067823648452759,-3.0314416885375977,7.206208229064941,10.235865592956543,2.646446943283081,0.972123920917511,2.461120843887329,6.951278209686279,3.3137454986572266,0.5588490962982178,-5.048154830932617,4.696436882019043,1.1907087564468384,-2.852132558822632,2.001178026199341,-4.6981730461120605,-1.4378550052642822,3.169934034347534,-8.159650802612305,-2.4437923431396484,-9.224989891052246,5.4397125244140625,-4.826311111450195,-1.173370361328125,-2.1980855464935303,9.538330078125,4.164482116699219,-3.1120059490203857,4.366463661193848,-3.183905839920044,2.885328769683838,0.5766472816467285,2.164174795150757,4.914649486541748,-6.428075790405273,-4.95945930480957,-9.59974193572998,1.5668680667877197,-1.975966453552246,0.9704261422157288,2.195316791534424,-0.8776362538337708,-0.3754039704799652,-2.4436194896698,-1.6176998615264893,-0.3497408628463745,1.0907096862792969,1.5811247825622559,1.5980679988861084,2.041722059249878,-1.9799500703811646,-1.453872561454773,0.5231619477272034,1.4177223443984985,1.961950421333313,-1.9185810089111328,1.3799244165420532,-1.1832338571548462,1.9841657876968384,-0.0567939467728138,-2.0380163192749023,-1.0137443542480469,-0.5834792852401733,1.0276250839233398,-0.7059069871902466,-2.156240701675415,1.4719555377960205,2.079620599746704,-0.5967169404029846,-0.3957403898239136,1.1759451627731323,-0.31668001413345337,2.4967739582061768,-0.2684052288532257,1.6539913415908813,2.469236135482788,2.5668749809265137,2.838789701461792,0.20258329808712006,0.8357510566711426,-1.9468555450439453,-5.5387187004089355,-1.328248381614685,0.9099152088165283,4.6641154289245605,-5.259355068206787,-3.9797141551971436,-0.3058171570301056,2.3353796005249023,-5.176036357879639,6.207002639770508,6.0244975090026855,0.42967110872268677,-4.367776870727539,-0.9141610264778137,3.1578094959259033,-0.7358610033988953,-0.7599197030067444,-2.8502962589263916,4.725020408630371,-0.9859882593154907,-3.770282506942749,1.0330867767333984,-2.161473512649536,4.194446563720703,1.4075665473937988,-5.706843852996826,-4.516734600067139,-5.458277225494385,4.989985942840576,-1.2181847095489502,-3.678156852722168,0.3619479835033417,5.947694301605225,4.968236446380615,-0.804862916469574,-1.1873347759246826,-1.6217141151428223,0.8534331917762756,0.5131386518478394,-3.7476859092712402,4.473870754241943,-6.327179908752441,-2.102829933166504,-6.550074577331543,-2.6185038089752197,-3.455486297607422,1.7696565389633179,2.4354069232940674,-2.189002513885498,-1.7128705978393555,-1.9710068702697754,3.0483386516571045,-2.510251522064209,1.0608354806900024,0.448324978351593,2.9451448917388916,-0.6659806966781616,-1.6528828144073486,1.7284218072891235,0.8933078050613403,1.1283138990402222,-3.2553818225860596,1.852919101715088,-2.429088592529297,-0.9158943891525269,4.094851016998291,-4.5787811279296875,0.9360931515693665,4.496292591094971,-2.4443042278289795,-4.5112690925598145,-3.286055564880371,2.4217429161071777,-1.7258589267730713,-0.8967441916465759,1.8224703073501587,2.7257144451141357,2.872572898864746,-2.29184627532959,1.1510684490203857,-0.45200881361961365,3.672520875930786,3.2110800743103027,0.592452347278595,2.5239036083221436,-3.1527416706085205,-2.6518874168395996,-2.9027764797210693,-0.8420785069465637,4.12929630279541,-3.603646993637085,-1.5751335620880127,4.229916572570801,4.111365795135498,5.317504405975342,-4.248617649078369,2.2439615726470947,-2.019441843032837,-1.4925575256347656,-3.917907476425171,-1.3863948583602905,4.539909839630127,-2.9489376544952393,-1.7293765544891357,-1.2374945878982544,4.594522476196289,1.2265628576278687,-1.9607099294662476,2.725656747817993,-4.137243270874023,3.8608436584472656,1.2048178911209106,-4.187501430511475,2.409728527069092,4.626105785369873,4.158967018127441,1.3549126386642456,-1.7557716369628906,-1.477004051208496,1.6448791027069092,-2.402951717376709,-2.6696889400482178,4.031454563140869,-1.4202690124511719,3.7241499423980713,-4.109710693359375,-3.909428119659424,-0.5578407049179077,-2.7642805576324463,4.390805721282959,3.903581380844116,1.8704516887664795,-3.03916335105896,-1.6479731798171997,-1.3295140266418457,-3.255948781967163,-0.7316697239875793,0.12234073132276535,0.17066773772239685,4.1989827156066895,1.1271734237670898,-1.788561224937439,-0.1763848215341568,0.8725201487541199,-3.0865023136138916,-1.1612539291381836,5.47048282623291,-4.320703506469727,-3.325683355331421,-3.611727476119995,3.0640573501586914,-4.232645511627197,2.425675630569458,2.1218950748443604,-1.6307586431503296,2.891444444656372,2.653836488723755,-2.17018985748291,-3.5878982543945312,-1.2193660736083984,2.1702029705047607,-4.004283905029297,-3.384768486022949,4.523000717163086,1.244605541229248,-1.0667979717254639,-1.717676043510437,-3.6542556285858154,-0.9272920489311218,1.5406025648117065,1.7203857898712158,-4.414308547973633,-0.5881832242012024,-1.0510492324829102,-1.082645058631897,0.616335391998291,-0.6715083122253418,-2.3777873516082764,3.706303596496582,3.6793324947357178,-4.969269275665283,-2.5469722747802734,0.05668731406331062,2.7476706504821777,-4.279481887817383,2.739570379257202,1.5875566005706787,2.270019054412842,-0.34781330823898315,-0.38546422123908997,1.535961627960205,0.33776333928108215,-0.4544585049152374,-2.883044958114624,3.1118974685668945,-2.580413341522217,-2.966635227203369,3.365009069442749,-3.771071672439575,0.12252824008464813,3.4630751609802246,-2.2712016105651855,-3.5763473510742188,-4.076031684875488,3.652991771697998,-2.537851572036743,-0.47302308678627014,-0.2185557335615158,3.356005907058716,2.632685661315918,-1.4798833131790161,-2.5170204639434814,-2.6956284046173096,1.5803452730178833,1.3098853826522827,-0.07545825839042664,0.5530557632446289,-5.089975833892822,-4.529782772064209,-2.509716033935547,-6.910388946533203,4.632915019989014,1.7984424829483032,0.5359911322593689,6.866336345672607,1.036270022392273,0.03548448905348778,-4.178496837615967,-0.7014048099517822,3.0955417156219482,-1.1199891567230225,2.412128448486328,-4.2968316078186035,1.9314594268798828,-12.302227973937988,-8.808746337890625,-9.160051345825195,10.440146446228027,1.4080344438552856,-3.738323450088501,1.5931965112686157,-8.254955291748047,0.0496133528649807,-1.0982364416122437,-0.9519373774528503,7.176749229431152,2.429885149002075,7.191354751586914,0.8594304919242859,-2.439138174057007,-4.817903995513916,7.478339672088623,-5.909689426422119,2.906045913696289,-0.6195992827415466,-2.1918866634368896,2.787400722503662,-4.731088161468506,2.017118215560913,-1.2442971467971802,-0.3493114113807678,11.644786834716797,3.572840929031372,2.1159932613372803,-1.5983916521072388,1.5098541975021362,-5.158043384552002,4.515861511230469,3.4271225929260254,7.520602226257324,3.6344330310821533,-4.03349494934082,-1.366902232170105,0.44001054763793945,1.2085896730422974,-6.701381206512451,-4.660914421081543,0.183683842420578,-8.363853454589844,-5.132570743560791,-3.590181350708008,2.2944560050964355,-7.521299839019775,-5.584403991699219,5.546427249908447,-0.8592259287834167,1.3683843612670898,2.6640429496765137,-1.9573304653167725,6.63810920715332,2.0225419998168945,5.039540767669678,-7.176995754241943,-4.071600437164307,-4.1100053787231445,5.137025833129883,-5.2181477546691895,-10.022562026977539,5.0571699142456055,2.4260802268981934,4.386601448059082,-1.2774335145950317,-0.15866267681121826,7.125771999359131,0.6424624919891357,2.584989547729492,2.2535789012908936,5.829372882843018,1.1611248254776,-1.1786011457443237,4.468160629272461,2.723600149154663,-8.625368118286133,-5.934868335723877,-4.03861665725708,10.540841102600098,-0.3995438516139984,5.345812797546387,3.5189411640167236,2.5166540145874023,-5.178863525390625,-3.5203917026519775,12.738616943359375,-2.24137020111084,2.273146152496338,-6.921353340148926,2.671201705932617,-1.9227392673492432,-8.120882034301758,2.498960256576538,-1.5888255834579468,5.204128265380859,0.4698235094547272,-10.011369705200195,-5.276297092437744,-4.590846061706543,4.625289440155029,-2.695953369140625,-5.621739387512207,1.7619192600250244,5.8753156661987305,5.548330307006836,-4.772010803222656,-4.23438024520874,-8.541823387145996,5.720972537994385,-0.968802809715271,-1.3762784004211426,6.080216407775879,-5.61453914642334,-3.7812631130218506,-3.6206681728363037,0.5729082822799683,0.9112315773963928,-1.171133041381836,-1.1570559740066528,1.5944019556045532,0.5207396745681763,-1.2043522596359253,-1.493945837020874,2.2268216609954834,-2.4487075805664062,-1.4675790071487427,-0.5600385665893555,1.6082946062088013,-0.1650218367576599,-3.183885335922241,1.7943897247314453,1.5153785943984985,2.052373170852661,-2.0076472759246826,2.3311145305633545,-0.011797687038779259,-0.16099800169467926,0.6609128713607788,-1.4842208623886108,-0.7396100163459778,2.6579432487487793,1.1744543313980103,2.217594623565674,-1.998860239982605,2.069027900695801,1.710567831993103,-2.0542829036712646,-1.86050546169281,-2.6518054008483887,0.25782397389411926,2.730786085128784,0.730610728263855,-0.11355172097682953,0.3363848924636841,2.505615472793579,-0.38839325308799744,0.9045566916465759,-0.1741117686033249,2.3490912914276123,-2.8263866901397705,0.12599752843379974,-0.694119930267334,-1.4832308292388916,-1.0353426933288574,0.325778067111969,0.46453872323036194,0.16327838599681854,1.3507455587387085,-0.44260352849960327,-2.2605059146881104,-1.1624870300292969,-2.031310796737671,0.40602603554725647,1.7064435482025146,-1.1556347608566284,-1.1084200143814087,-0.3722417652606964,1.6879910230636597,1.2091796398162842,0.37287968397140503,0.0013496896717697382,1.2582725286483765,2.0050036907196045,-0.6654571890830994,-1.0540664196014404,0.08978041261434555,-0.10918118804693222,0.1904834508895874,-0.9362672567367554,-1.491376280784607,1.0207241773605347,0.0016916007734835148,0.5717303156852722,1.0770001411437988,-1.4410072565078735,0.5728991031646729,-0.565386950969696,-1.1531375646591187,-2.6274967193603516,-1.180466651916504,-0.11099506914615631,0.6564211249351501,0.0013116325717419386,-1.875960111618042,2.7162468433380127,-2.244797468185425,-1.24760901927948,2.6383190155029297,2.9131195545196533,3.5354108810424805,-2.398634910583496,2.422272205352783,-2.9018709659576416,-1.343799352645874,-3.195436954498291,-1.9174493551254272,3.339405059814453,-2.8118269443511963,-1.8124618530273438,-2.6983931064605713,3.321396589279175,2.183718204498291,-2.4985527992248535,3.394047498703003,-2.9584226608276367,1.7556039094924927,1.9399681091308594,-2.4896161556243896,3.4958672523498535,2.988266944885254,2.1870760917663574,2.5547945499420166,-1.7919073104858398,-2.1876142024993896,1.5722302198410034,-1.7731229066848755,-3.4761061668395996,2.9766457080841064,-2.059354543685913,2.6624228954315186,-3.1655545234680176,-3.2910492420196533,-1.7775094509124756,-3.3332037925720215,2.675326108932495,2.341397762298584,2.4120802879333496,-6.481137275695801,0.25288692116737366,4.3371901512146,6.178323745727539,-5.942410945892334,-6.148460388183594,-0.9038698673248291,1.5578179359436035,-6.433581352233887,6.50444221496582,14.177183151245117,-2.0858819484710693,-6.117590427398682,-0.07621253281831741,4.209229946136475,-0.05176011472940445,-2.0891032218933105,-0.9305296540260315,4.769204616546631,1.3953757286071777,-9.349352836608887,-0.7844371199607849,1.0254764556884766,7.292087078094482,0.6264975070953369,-7.446804523468018,-0.8263106942176819,-5.874605655670166,4.367055416107178,2.382993698120117,-3.922741174697876,-1.397585391998291,8.996006965637207,5.512073516845703,-0.6044629812240601,-0.107956163585186,-5.671764373779297,-1.0909050703048706,-3.1779329776763916,-1.8849728107452393,2.1604068279266357,-7.370030403137207,-4.462954044342041,-8.613079071044922,2.497690200805664,0.8838546276092529,4.521606922149658,11.469962120056152,-7.060046672821045,-4.966572284698486,0.39267396926879883,7.089396953582764,2.7099344730377197,7.970834732055664,9.562816619873047,2.5273423194885254,-5.3438720703125,-2.6775920391082764,7.950168609619141,-3.3092775344848633,3.8593907356262207,-7.333209991455078,5.382141590118408,-2.4165279865264893,-4.8154683113098145,-1.7231661081314087,-3.3888914585113525,6.002252578735352,6.6456475257873535,-8.080202102661133,-5.952479839324951,-7.561532020568848,4.580963134765625,-4.055694580078125,-5.405181407928467,2.3626251220703125,11.626357078552246,3.630145311355591,-4.637735843658447,-4.96327018737793,-6.9698052406311035,2.3131814002990723,-1.3772348165512085,-4.478158473968506,9.686674118041992,-5.648653507232666,-5.6212687492370605,-5.97434663772583,1.8182270526885986,3.9713242053985596,-2.767965793609619,-2.562244415283203,-0.1838437020778656,5.786421775817871,5.36539363861084,-3.736581563949585,1.4119749069213867,-0.7272473573684692,-2.938887119293213,-6.0999579429626465,-1.7599711418151855,6.2494964599609375,-0.8508721590042114,-2.5683555603027344,-15.490757942199707,3.7661352157592773,-2.0592925548553467,-1.4737331867218018,6.201173305511475,-5.83413028717041,2.954324245452881,2.9467098712921143,-1.8447312116622925,-0.3079921305179596,4.175833702087402,1.1739979982376099,0.8890049457550049,0.11937102675437927,-1.2053325176239014,1.057170033454895,-2.053654193878174,-3.8138489723205566,5.2492499351501465,1.7512367963790894,8.331214904785156,-8.476884841918945,-8.280125617980957,-2.348689556121826,-6.911405086517334,1.4053218364715576,2.596567392349243,2.0495917797088623,-2.674574375152588,-0.5537799596786499,0.7402048110961914,0.14824163913726807,-1.3553565740585327,-0.36341509222984314,-0.7739818096160889,1.0900647640228271,-1.1982347965240479,0.47650405764579773,-0.08963317424058914,0.8334412574768066,-1.678955078125,-0.4764430820941925,1.6679234504699707,-2.242276191711426,-3.389366388320923,-1.1644940376281738,0.08537585288286209,-2.2317142486572266,0.10453052818775177,0.4101814329624176,-0.5387352108955383,0.8958753943443298,0.9391191601753235,-0.9397453665733337,-0.45792365074157715,-0.6662195324897766,0.8277499675750732,-1.711941123008728,-1.5353014469146729,1.8861581087112427,0.1278056651353836,0.8999865055084229,-1.1184210777282715,-0.841938316822052,-0.3963696360588074,0.33512017130851746,1.0335047245025635,-1.6728014945983887,0.43754497170448303,-0.050110235810279846,-0.8609911799430847,-0.11679024994373322,-1.4220681190490723,0.8111097812652588,-0.22032573819160461,0.5366121530532837,-2.587535858154297,0.2763552963733673,1.34934401512146,0.43870505690574646,0.4989846348762512,-0.2314651608467102,-1.0349525213241577,-1.7051488161087036,-0.9441924691200256,-0.7364332675933838,0.9953969120979309,-0.6259562969207764,-1.231366753578186,-0.08943131566047668,0.297328382730484,-0.05864713713526726,0.48863789439201355,-1.617606520652771,0.7834956645965576,1.298738956451416,-0.38491466641426086,-0.6655203104019165,1.6110745668411255,0.5527154207229614,0.3451782464981079,0.04628895968198776,-0.9961087107658386,0.29438459873199463,-0.11085961759090424,0.448154091835022,1.2866445779800415,0.05251627415418625,0.3501870036125183,-0.9803133010864258,0.23023878037929535,0.3109374940395355,-0.32925185561180115,0.7916840314865112,0.757042407989502,-0.2474888563156128,0.039632879197597504,0.030928440392017365,0.06381184607744217,-0.05116874352097511,0.0763518437743187,-0.032521337270736694,0.033682048320770264,-0.024382736533880234,-0.03471055254340172,0.035803332924842834,-0.01923876814544201,0.0011939449468627572,-0.04061264172196388,0.0010391754331067204,0.02610846981406212,-0.06249277666211128,0.07436806708574295,0.006136850453913212,-0.02120443992316723,0.0044708698987960815,-0.025012871250510216,-0.06553878635168076,0.06762102991342545,-0.018163174390792847,-0.03133036941289902,-0.05368541181087494,-0.07870903611183167,-0.00241299020126462,0.046580757945775986,-0.06826108694076538,-0.05562626197934151,-0.02140967547893524,-0.039198219776153564,0.03465234860777855,-0.059892311692237854,0.05632086843252182,0.06279949098825455,-0.016702620312571526,0.07292503118515015,-0.05727577954530716,0.07603808492422104,0.010914129205048084,0.03434019535779953,0.07726730406284332]},"hiddenLayers":[{"inputMatrix":{"rows":20,"columns":44,"weights":[0.1441011130809784,0.23628103733062744,0.21222364902496338,-0.016202855855226517,-0.7202602028846741,0.41308102011680603,0.5669666528701782,-0.6548610329627991,0.8406985998153687,-0.6542335748672485,-0.8520318865776062,-0.7618915438652039,0.6752135753631592,-0.4650838077068329,-0.6876301169395447,0.5923795104026794,0.5335223078727722,0.7901163101196289,-0.9923808574676514,1.1283037662506104,0.3558902442455292,-0.3530745506286621,0.6526321768760681,-0.3460763990879059,-0.3397226333618164,0.1297403872013092,1.2907389402389526,-0.07673345506191254,-1.2138383388519287,1.4559659957885742,0.7029725313186646,-0.6808040738105774,-0.6024966835975647,-0.3530110716819763,0.5498158931732178,0.808992862701416,-0.30062565207481384,-0.30027323961257935,0.3363093435764313,1.130743145942688,-0.7210021018981934,0.5375567674636841,0.049399904906749725,-0.25352197885513306,-0.39846622943878174,-0.3399251699447632,0.08162885904312134,0.13032571971416473,0.5483474135398865,-0.8965725302696228,-2.0919148921966553,-0.40347015857696533,0.30627718567848206,-0.698009192943573,0.11802154779434204,1.6596790552139282,1.121809482574463,-1.2978684902191162,-0.7353954315185547,0.9869227409362793,2.1427090167999268,-0.24949507415294647,-0.1023920476436615,2.164944648742676,-0.2709106206893921,0.6139771938323975,-0.5855458974838257,-1.2375258207321167,0.6131893992424011,0.8111112117767334,-0.5534844994544983,0.8083677291870117,-1.2979563474655151,1.499000072479248,1.2807682752609253,-0.5293484330177307,-0.4288792014122009,-0.25710010528564453,-1.3959771394729614,1.0361790657043457,-0.09768702834844589,1.0085645914077759,1.1393076181411743,0.5925459265708923,0.8232423067092896,-0.053679484874010086,-0.12077421694993973,0.5006117820739746,-0.032310210168361664,-0.8257646560668945,1.5823594331741333,1.4881846904754639,-0.010276688262820244,-1.3079981803894043,-0.9678694009780884,-0.04771294817328453,-2.321410894393921,1.6510041952133179,2.076648712158203,1.1895906925201416,-0.04851312190294266,-0.2906692624092102,0.10264120995998383,-0.3382025361061096,-0.18671609461307526,0.23097167909145355,-0.10092207789421082,-0.0686168447136879,-1.079851508140564,0.2960834503173828,0.5655568838119507,0.33840274810791016,0.6622277498245239,-0.6569833159446716,0.36610960960388184,-0.9704137444496155,0.0787554457783699,0.10817677527666092,-0.10187102854251862,0.20009972155094147,1.2670860290527344,0.8489882946014404,-0.6017885208129883,0.17759272456169128,-1.0909441709518433,0.3362867832183838,-0.5134854316711426,-0.10927912592887878,0.03777633234858513,-0.3946363031864166,-0.8967382907867432,-0.9477400183677673,-0.9712920784950256,2.2333505153656006,-1.423713207244873,-0.8071197271347046,-0.3292226493358612,-0.5944591760635376,0.23469436168670654,-0.24053721129894257,0.8913978934288025,0.2780947983264923,-0.9608904719352722,-0.45132067799568176,-0.32354581356048584,0.16108770668506622,-0.6813746094703674,0.6625882983207703,0.5181944966316223,-0.3698400557041168,-0.9347325563430786,0.6073938012123108,0.21451173722743988,-1.4676278829574585,1.900235652923584,-0.15444578230381012,-2.041191816329956,0.03286316245794296,1.6581957340240479,1.356827974319458,-1.2961477041244507,0.444829523563385,0.7604576349258423,-0.8522898554801941,-1.3752753734588623,0.962688148021698,-0.24007408320903778,1.0708433389663696,-0.5993468761444092,-1.4032018184661865,-1.7994009256362915,0.27364784479141235,0.10023508220911026,1.346873164176941,1.014814853668213,0.7801781296730042,1.2504252195358276,0.7735701203346252,-0.1105848178267479,0.13555920124053955,1.3578269481658936,0.0926583856344223,0.4098876118659973,-0.7794148325920105,-0.28842875361442566,-0.04649187996983528,0.7678930759429932,-0.2947377562522888,0.12522417306900024,0.8000177145004272,-2.3959667682647705,0.38804933428764343,0.23365435004234314,1.4993987083435059,-1.6674885749816895,-0.07265100628137589,-0.047966234385967255,-0.691214382648468,-0.6976755261421204,-0.18230441212654114,-0.1362813413143158,1.2735753059387207,1.6733686923980713,1.171159267425537,-0.8870549201965332,0.7950043678283691,0.253680944442749,-0.4233097732067108,-0.689674437046051,-1.7450000047683716,-0.24178507924079895,1.3448761701583862,-0.10200725495815277,-0.6068302392959595,-0.12981422245502472,1.6440560817718506,-0.1752200424671173,0.40574777126312256,-0.28353801369667053,0.5000987648963928,0.13878217339515686,-0.018927376717329025,-0.1921895295381546,0.5505138039588928,0.15767911076545715,-1.6027681827545166,-3.949705123901367,0.14297060668468475,-0.01854543387889862,-0.05324750393629074,0.31948763132095337,2.0587286949157715,1.1770726442337036,-1.2296175956726074,0.38366326689720154,0.7613895535469055,0.16853033006191254,-0.6028389930725098,-0.9331356883049011,0.9107099771499634,-0.9451783895492554,0.019035853445529938,-0.0638137236237526,-1.2917864322662354,0.04000946506857872,0.15272624790668488,-0.2955470383167267,0.5208726525306702,-1.2703639268875122,0.8102716207504272,1.28971266746521,-0.8979532122612,-1.5146019458770752,0.3380739688873291,-1.386216163635254,0.8073139190673828,-0.7309455275535583,0.5914803743362427,0.8838279843330383,0.5413349866867065,1.5088104009628296,0.17435897886753082,-0.011127043515443802,0.7410536408424377,2.562418222427368,-0.3909159004688263,0.29264724254608154,-0.4389483332633972,0.18513740599155426,0.7958958745002747,0.0016790104564279318,-0.751826286315918,-0.03004990704357624,-0.2830836772918701,0.1200709342956543,-0.030018126592040062,2.2041280269622803,-0.12608031928539276,-1.5442116260528564,1.4942197799682617,1.9892951250076294,1.0042020082473755,-0.7149671912193298,1.0984572172164917,0.8831239938735962,0.6155865788459778,-0.2750009298324585,-1.423423171043396,0.18813630938529968,0.9312840104103088,0.06143588200211525,-0.5751622319221497,-0.5806663632392883,1.4511164426803589,2.1593017578125,-0.8369727730751038,0.2853054106235504,-0.02116253785789013,0.45775434374809265,0.959427535533905,0.33303359150886536,0.36219167709350586,-0.1430976241827011,1.4253729581832886,0.3417106568813324,0.00400171335786581,-0.008867047727108002,-0.8231807351112366,0.10403081029653549,-1.1829503774642944,0.5608596205711365,-0.15203194320201874,0.3681721091270447,-0.8158117532730103,-1.3937454223632812,0.5700991749763489,-0.5090314149856567,0.5926353931427002,0.23527957499027252,0.879619836807251,-0.523786723613739,-1.3141831159591675,1.116608738899231,-0.6519553065299988,0.08206383883953094,-0.8485066890716553,0.9686272740364075,-1.1069393157958984,-1.0151418447494507,1.3325576782226562,-0.7084601521492004,-0.15352891385555267,0.9192684292793274,-0.5409048199653625,-0.7225477695465088,-0.3484981954097748,0.7641394138336182,-1.4058507680892944,-0.09980551898479462,0.838036835193634,0.4474029242992401,0.8415940999984741,-1.2304182052612305,-1.0386134386062622,-0.23053805530071259,1.2161287069320679,1.0008633136749268,-0.8007459044456482,0.47093120217323303,-0.9243852496147156,-0.4348822832107544,-0.09187237173318863,-0.4132026433944702,-0.6842660307884216,1.2652407884597778,1.0727843046188354,-0.6087549924850464,-0.3119407594203949,-0.2259339839220047,-0.04686809331178665,-1.5472818613052368,1.4377105236053467,1.302824854850769,0.5948355793952942,-0.3325621485710144,-0.299220472574234,0.3307921886444092,0.7681532502174377,0.16324467957019806,-0.6199018955230713,-0.3666364550590515,1.166710615158081,-0.4869518578052521,0.41967153549194336,0.48498955368995667,0.40578627586364746,0.42428824305534363,-0.42898786067962646,0.3504677414894104,-0.7127357721328735,-0.807649552822113,1.3728688955307007,-0.2265811711549759,-0.757492184638977,0.46114858984947205,0.6977482438087463,-0.49293604493141174,1.2755850553512573,-0.6122005581855774,-0.10599899291992188,-0.901800811290741,0.6090987920761108,0.145022451877594,-0.866839587688446,-0.8648639917373657,-0.5439632534980774,0.3818371891975403,0.22317662835121155,0.2768872082233429,-0.39645376801490784,-0.512611448764801,-0.10259009152650833,0.518614649772644,0.6180412173271179,0.2514496445655823,0.653924286365509,0.7188631892204285,-1.3894847631454468,-1.2103333473205566,0.11500094830989838,1.6133078336715698,-0.5256513357162476,-1.0372556447982788,-0.3439278304576874,0.5080357193946838,-0.004099738784134388,-0.9447596669197083,-0.8786416053771973,1.4459178447723389,2.196300506591797,-0.5376937985420227,-1.6602303981781006,1.5886855125427246,-0.3519270718097687,0.277248352766037,-0.32399091124534607,-1.4912538528442383,0.2781045436859131,0.9029095768928528,0.6746463179588318,0.5069980621337891,-0.7304207682609558,-0.639208197593689,-0.3564254939556122,-0.9487014412879944,-0.18531107902526855,-0.3248651921749115,-0.5347239375114441,-0.28592318296432495,-0.6494240760803223,0.039258819073438644,-0.35724911093711853,0.5673442482948303,-0.23085202276706696,0.3804323077201843,0.24893465638160706,-0.9960184097290039,0.19146278500556946,0.30046433210372925,-0.8064723014831543,-1.0156188011169434,1.0193121433258057,0.15418750047683716,-0.630130410194397,-0.2425481677055359,-0.5404320359230042,-0.30144014954566956,-0.09177941828966141,-0.14691999554634094,-0.7463827729225159,0.2668408453464508,0.30710598826408386,-0.3270302414894104,-0.3884321451187134,0.529084324836731,0.6852843761444092,-0.09983521699905396,0.21296989917755127,-0.20559707283973694,-0.5408951044082642,0.06668131053447723,0.7896469235420227,-0.7064542770385742,-0.6007705330848694,-0.5916330814361572,-0.4203481674194336,0.014101596549153328,0.420282781124115,0.805783212184906,-0.05592746660113335,-0.2111668586730957,0.8683451414108276,-0.09082559496164322,0.9739891886711121,0.7049095630645752,-0.6999382376670837,0.4812643527984619,0.6323529481887817,-0.13419608771800995,-0.3868805766105652,-1.1614137887954712,0.5431148409843445,-0.1283910870552063,0.05376580357551575,0.19537736475467682,0.7689462304115295,0.4529079496860504,-0.7276324033737183,-0.472009539604187,0.8792485594749451,1.1770079135894775,-0.2462320327758789,-0.702530026435852,0.8669219613075256,-0.657291829586029,1.1248894929885864,-1.2385050058364868,-0.800262451171875,0.6611278653144836,0.28147223591804504,-0.4870012402534485,0.04053756594657898,-0.3755283057689667,1.0883351564407349,0.5277460813522339,-1.0365604162216187,0.04043267294764519,-0.40423983335494995,-1.1387789249420166,0.7069263458251953,-0.7373055219650269,0.9798539280891418,1.260701298713684,0.970784604549408,0.13350600004196167,-0.5405522584915161,-0.9361737370491028,0.3029640018939972,0.8705986738204956,-0.7639567852020264,-0.5561656951904297,1.093890905380249,-0.6834065914154053,-0.3475159704685211,-0.15964512526988983,-0.0325542576611042,-0.03838472440838814,0.631479024887085,0.35163575410842896,-0.4352954626083374,0.10203009843826294,-0.294648677110672,0.5248643755912781,2.1441805362701416,0.9374858140945435,0.13397203385829926,0.12059663981199265,1.6614569425582886,-0.5623274445533752,0.5670350193977356,0.4687666893005371,0.4440125524997711,-0.38853809237480164,-0.8439828753471375,0.3462666869163513,-0.6764559149742126,0.19552208483219147,1.3541486263275146,0.19171828031539917,-1.9844489097595215,0.8263580799102783,-0.15698787569999695,0.6724632382392883,0.805752158164978,-0.04522469639778137,1.4387251138687134,0.04983113333582878,0.6859897375106812,0.2305634468793869,-1.6187691688537598,-1.1475412845611572,-0.34679239988327026,-0.9375404119491577,0.15665271878242493,0.993695855140686,-0.18847060203552246,0.5518843531608582,0.4271203875541687,-0.9488617181777954,1.4603233337402344,0.11078372597694397,-1.130999207496643,-0.34243324398994446,0.01861845701932907,-1.0302313566207886,-0.41785183548927307,-0.20371395349502563,-1.179823637008667,-0.9196452498435974,-0.3556717038154602,0.3415340781211853,-1.6989152431488037,-0.12360914796590805,-0.44113317131996155,-1.0053796768188477,0.906316876411438,1.4373674392700195,1.0546870231628418,-1.1290175914764404,0.428798109292984,0.5680729150772095,-0.5408096313476562,-1.0218510627746582,1.1854466199874878,-0.355894535779953,-1.5491458177566528,-0.6214547753334045,-1.7268807888031006,-0.14037884771823883,-0.5842803120613098,-0.09654911607503891,-1.3188413381576538,-0.964890718460083,0.022120891138911247,-0.7673746347427368,1.0937694311141968,0.0777793675661087,-2.351606607437134,1.48551607131958,-0.432379812002182,-0.9225572943687439,0.18095117807388306,-0.9845174551010132,0.022503308951854706,0.1820714920759201,-1.6020931005477905,-0.2994297742843628,2.200192928314209,1.1896129846572876,-1.3208078145980835,0.04655676707625389,-0.7001149654388428,-0.07540550082921982,0.4541153013706207,0.6886050701141357,-0.8806924223899841,0.5328296422958374,3.076648473739624,-2.2894906997680664,-0.8549267053604126,1.8973439931869507,1.203018069267273,-2.5119857788085938,-1.5255061388015747,0.7923714518547058,-0.8443762063980103,0.24143393337726593,1.1090666055679321,0.3134167194366455,-1.143086314201355,-0.8330416679382324,-1.0348429679870605,-0.378422349691391,1.8060972690582275,3.8178153038024902,-0.32945576310157776,0.6366671323776245,-0.31985345482826233,-0.6882216334342957,-0.8335314989089966,0.1838502287864685,-1.0217474699020386,0.3450659215450287,0.2446315437555313,-1.6852213144302368,-1.1200740337371826,-0.8082689642906189,0.14121736586093903,-0.04131706804037094,1.0015766620635986,0.7823537588119507,0.6130291819572449,-0.3760194778442383,-1.1230189800262451,1.0936107635498047,-0.05614009499549866,0.3545721769332886,-0.8002867698669434,0.1381521224975586,-0.3702579438686371,-1.6076436042785645,1.6224383115768433,-0.7162004113197327,0.13891945779323578,-0.2716526389122009,-2.015460968017578,0.034056924283504486,-0.6732008457183838,-0.19197531044483185,-0.6590216159820557,-0.051807746291160583,0.14376229047775269,-0.11091786623001099,1.5319019556045532,-1.2255240678787231,-0.0982956513762474,-0.699015736579895,1.523756504058838,0.8389734029769897,-0.17888474464416504,1.3040748834609985,-0.145649254322052,0.1915852129459381,-1.04810631275177,-0.06441238522529602,-0.7684357166290283,-0.3072676956653595,-0.26541799306869507,0.1469375193119049,-0.6653870344161987,-1.3444223403930664,-1.200182557106018,-0.3395664095878601,0.18846681714057922,0.026017220690846443,0.5924053192138672,1.7507262229919434,-0.5618188381195068,-0.5750897526741028,1.4344561100006104,-0.4384584128856659,0.9169647693634033,-1.4303929805755615,2.179155111312866,-1.4699530601501465,1.1253052949905396,0.05388902500271797,-1.6508640050888062,-0.18088242411613464,0.14966771006584167,1.2123645544052124,1.1025789976119995,-1.5212311744689941,2.4786264896392822,1.9367091655731201,-1.515182375907898,-0.4533471167087555,0.6824191212654114,-0.4101061224937439,1.344677209854126,-0.8443909287452698,0.5773304104804993,0.2832414209842682,1.2432612180709839,-0.26867806911468506,-0.06655573099851608,-0.3508175313472748,-0.0004989515291526914,-1.74070405960083,0.5764787197113037,-1.246288537979126,0.5730727314949036,0.25726622343063354,-0.49633535742759705,-1.380751371383667,-0.6757120490074158,-0.421412855386734,0.6133986711502075,-0.2736121416091919,0.192577064037323,-1.0266697406768799,0.7187173366546631,0.5145500898361206,-0.44805610179901123,-1.5999009609222412,0.9208256602287292,-0.3862653970718384,0.30800899863243103,-0.5915494561195374,-1.0437994003295898,1.8244696855545044,1.4550676345825195,-1.9741237163543701,-0.5201375484466553,1.4229991436004639,0.8099241852760315,-0.37093615531921387,0.38716384768486023,-0.6048593521118164,0.002863524714484811,-0.962244987487793,0.849240779876709,-0.11713861674070358,0.9044532775878906,0.8003511428833008,-1.2046372890472412,-1.2061736583709717,-0.24009652435779572,-0.16055141389369965,0.6959176659584045,-0.04378332197666168,0.5054814219474792,1.1752742528915405,-0.4405556321144104,0.7331428527832031,0.3903394341468811,-0.19656142592430115,-1.7093896865844727,0.28303688764572144,0.16848908364772797,-1.2874118089675903,1.9889057874679565,2.3367340564727783,0.8896543979644775,1.4931042194366455,0.8191284537315369,0.37282490730285645,1.2068268060684204,0.9130985736846924,0.46159428358078003,0.12656812369823456,1.3190451860427856,-1.3298977613449097,-0.47641807794570923,-0.1639491319656372,-0.8983297348022461,0.4724828600883484,-1.1916598081588745,0.20076251029968262,-0.791767418384552,0.34278613328933716,0.9213221073150635,1.0317049026489258,-1.1642756462097168,1.4113019704818726,1.4233843088150024,-0.829476535320282,0.3042162358760834,-0.8659200072288513,0.11378476023674011,-0.13091404736042023,-0.37130194902420044,0.5462766289710999,-0.8666667342185974,-0.38877660036087036,-1.3406178951263428,0.4785635471343994,-0.014363124035298824,-0.9231159687042236,-0.22132138907909393,0.8436625599861145,0.8284946084022522,-0.6578623056411743,-0.9473202228546143,0.8412217497825623,-0.17030756175518036,-1.7251691818237305,-0.7226896286010742,1.290327548980713,0.12513670325279236,-2.006009101867676,1.0629643201828003,1.310194730758667,0.935120165348053,-0.6352893710136414,0.888931930065155,0.2584005892276764,0.3261561989784241,0.7582148313522339,-0.9995163679122925,-1.198467493057251,0.989243745803833,0.24876722693443298,1.743246078491211,-0.6137426495552063,0.8302973508834839,1.3543870449066162,-0.6407597064971924,-1.3166351318359375,-0.01925165206193924,1.0575698614120483,0.32658499479293823,0.16020874679088593,0.33252692222595215,-0.12900789082050323,0.671228289604187,-0.6518027186393738,0.7141319513320923,0.40911611914634705,1.8815618753433228]},"inputHidden":{"rows":20,"columns":20,"weights":[-1.5342957973480225,-1.0170925855636597,2.761613368988037,2.692309856414795,4.262824535369873,-1.4510226249694824,-3.0930562019348145,0.14908520877361298,-1.8573442697525024,0.14414913952350616,-0.7712745070457458,3.1926052570343018,4.200261116027832,0.30241096019744873,-0.149087592959404,0.9047485589981079,-2.8231585025787354,-2.2577967643737793,-3.0163516998291016,2.0938804149627686,-0.997317373752594,-0.4633786082267761,-0.07814352214336395,-0.23063191771507263,0.24936310946941376,-0.016382677480578423,-0.07551468163728714,0.26047807931900024,0.9869486093521118,1.0242688655853271,0.678467333316803,0.1503148227930069,0.1314796656370163,-0.8618618249893188,-0.42597272992134094,0.15728308260440826,-0.36307084560394287,0.38993439078330994,-0.20234929025173187,0.6543107032775879,1.0231934785842896,-0.12692326307296753,0.8950755596160889,-0.6256402134895325,0.5273288488388062,1.117302417755127,-1.0680028200149536,-0.8864017724990845,-2.129101276397705,0.2919166386127472,-1.683521032333374,0.644543468952179,0.8861439228057861,1.3021175861358643,0.6264545321464539,-0.883089005947113,-0.35108867287635803,0.37721195816993713,-0.4851732552051544,1.0989596843719482,0.5500656366348267,0.6894875168800354,-0.07341213524341583,1.1219381093978882,-0.5263484716415405,-0.7916644215583801,-0.294598788022995,0.3908367455005646,-0.476489394903183,-0.5021462440490723,0.3914952278137207,-0.6736969947814941,-0.16191956400871277,0.5550342798233032,0.5019350051879883,-0.14947499334812164,0.6179642677307129,-1.5731836557388306,0.849724292755127,-0.4315585792064667,-0.7734295725822449,0.31368979811668396,0.9962760806083679,-1.5301907062530518,0.8093385696411133,2.525163173675537,-0.35583943128585815,-0.5331369638442993,0.07214625179767609,-2.117940902709961,1.0637943744659424,0.510113537311554,0.9592377543449402,0.4160037636756897,0.8354261517524719,0.1226968988776207,-1.4143685102462769,0.7537744045257568,-0.8489338755607605,1.0341711044311523,-0.4349142909049988,-0.529227077960968,-0.8120912909507751,-0.9396474957466125,0.7634115219116211,1.5841524600982666,-0.2486184537410736,-1.0962328910827637,0.7853260636329651,-0.3289690315723419,1.6860463619232178,0.4249415099620819,-0.36373254656791687,1.191394567489624,0.8530640006065369,-0.6047704815864563,0.21495719254016876,0.02556713856756687,0.47785598039627075,1.409383773803711,-1.435224175453186,-0.28722119331359863,-0.38563066720962524,-0.959428071975708,-0.0990743413567543,0.19200411438941956,0.0025437099393457174,-1.5519537925720215,0.4406009614467621,1.7125778198242188,-0.9104137420654297,-0.25246500968933105,-0.8296146392822266,0.9531016945838928,0.5601698756217957,-1.1804825067520142,-0.03315533325076103,0.20810602605342865,-1.021362066268921,-0.6608026623725891,-0.2897034287452698,0.06988203525543213,-1.4622933864593506,-0.05790159851312637,-1.470241904258728,-1.39543616771698,0.7219213247299194,1.2275383472442627,-0.35398492217063904,0.5050937533378601,1.3395382165908813,-1.3457621335983276,-0.19879603385925293,-1.2083927392959595,-1.9820876121520996,1.6261099576950073,0.39000368118286133,-0.4088476002216339,0.8481332063674927,-0.5091104507446289,-0.15923628211021423,0.8402981162071228,0.3360980451107025,-0.6779735088348389,0.2029482126235962,0.6180917024612427,-0.23430904746055603,-1.303900957107544,-0.2206268310546875,1.7028356790542603,0.4457363486289978,-1.2949055433273315,0.6136417984962463,0.7796036601066589,0.02604525536298752,-0.34739574790000916,-0.9952646493911743,-0.6496682167053223,-1.2777950763702393,-1.7346760034561157,-1.2690201997756958,1.6844854354858398,-1.0435421466827393,2.496520757675171,-0.6071714162826538,-2.0073516368865967,1.3557729721069336,1.6358511447906494,-0.05133983865380287,1.8274389505386353,1.6643675565719604,-2.254411220550537,-1.7183290719985962,-0.3620068430900574,-0.607099175453186,0.40434446930885315,1.157791256904602,-0.9601266980171204,-0.08007267117500305,-3.717900276184082,-1.0741753578186035,0.4708443880081177,0.525748074054718,-3.3035147190093994,-2.0845322608947754,3.803734540939331,1.541387677192688,-3.3555216789245605,1.3793659210205078,-0.6850786805152893,0.2579056918621063,-1.433326244354248,-2.471431255340576,-0.1262064427137375,0.07320751994848251,-1.4615000486373901,0.44221600890159607,3.7255966663360596,1.0034703016281128,-0.20463980734348297,0.32212546467781067,-0.059113964438438416,-0.0955464243888855,-0.2947019338607788,-0.40723907947540283,1.1222537755966187,-1.8081837892532349,0.4340130388736725,0.41167011857032776,0.08448091149330139,0.41825759410858154,-0.14256826043128967,-0.6968663334846497,-0.317315012216568,-0.7797333002090454,0.5595932006835938,2.2161757946014404,-0.09363409131765366,0.22720055282115936,0.6752032041549683,0.376054584980011,0.6985509991645813,0.788521409034729,0.20788918435573578,0.03960616886615753,-0.29364868998527527,-0.6119149327278137,-1.6990975141525269,1.7647840976715088,0.7294562458992004,0.24955008924007416,0.4995906949043274,-0.03626479580998421,1.4548969268798828,0.8236521482467651,-1.0108307600021362,0.286797434091568,-1.3718048334121704,-0.4889407753944397,-0.07656703144311905,0.04751123487949371,0.6298211216926575,-0.06340104341506958,-0.09461256861686707,-0.036629728972911835,0.056679096072912216,-0.4011119604110718,0.04025648534297943,-0.34796464443206787,-0.45589593052864075,0.03712184727191925,-0.5940646529197693,0.14035183191299438,-0.25094860792160034,0.09791840612888336,0.13288500905036926,0.039327528327703476,0.13117611408233643,-0.644344687461853,1.3291305303573608,-0.08257804811000824,-0.8043133616447449,0.3916262984275818,-0.8538686037063599,-0.025592276826500893,0.7214863300323486,-0.3283282220363617,1.229090929031372,-0.16715854406356812,-0.20037440955638885,0.266696035861969,0.868914008140564,1.0971020460128784,-1.541761875152588,0.22146324813365936,0.7434911727905273,-0.19842863082885742,1.1643023490905762,-1.3131779432296753,0.9238905906677246,0.16591785848140717,0.10558784753084183,0.167223259806633,0.728214681148529,0.32922622561454773,-0.6128977537155151,-0.43337181210517883,0.7030209898948669,0.8445723056793213,-0.7187386751174927,0.4821045696735382,0.21545930206775665,-0.102622851729393,-0.9375200867652893,0.24846066534519196,0.5199915170669556,-0.2653847336769104,-0.7316204309463501,-0.14332716166973114,-0.5053266286849976,-0.39143359661102295,-0.7153071165084839,0.8082529306411743,-1.5593547821044922,0.31772947311401367,0.02257413975894451,-0.8267793655395508,-1.2311158180236816,-1.6516376733779907,0.6634789109230042,-0.011426505632698536,0.45434993505477905,0.025297999382019043,0.5559579730033875,0.24598662555217743,-0.5617925524711609,-0.29671186208724976,1.1055303812026978,-0.4101024866104126,0.29514095187187195,0.09205436706542969,1.0532279014587402,0.4817568361759186,-0.8268136382102966,-1.0224496126174927,-0.5821650624275208,-0.8015002012252808,0.384257972240448,-0.2262570708990097,0.6141192317008972,0.2139429748058319,-0.701455295085907,0.08700864762067795,-0.14251168072223663,-0.2547129690647125,0.7794684767723083,-0.2337294965982437,0.7141574621200562,0.639801561832428,-0.6198440194129944,1.7138532400131226,-0.24695611000061035,1.8251246213912964,-2.136829376220703,-0.15716402232646942,1.4826079607009888,-1.6678262948989868,-1.9237301349639893,-0.3467490077018738,0.7317587733268738,-1.4886682033538818,0.0688830316066742,1.3411458730697632,2.5079524517059326,1.4249286651611328,-0.4303347170352936,-1.7779492139816284,0.5482750535011292,-1.3902277946472168,-1.011683464050293,0.015184319578111172,0.6811518669128418,0.16885602474212646,-0.7385295033454895,0.5868439078330994,-0.284429669380188,1.8883558511734009,-1.1434361934661865,-2.6123526096343994,0.6471777558326721,-0.8060173988342285,0.05876842513680458,0.526459813117981,1.682158350944519,-1.639960765838623,-2.2877604961395264,1.2877495288848877,-0.0028864198829978704,-1.4039009809494019,-1.2561471462249756]},"inputBias":{"rows":20,"columns":1,"weights":[-0.8148322105407715,-0.08679836988449097,-0.29368963837623596,0.39475005865097046,-1.8313298225402832,-1.5064077377319336,-0.7011424899101257,0.21450358629226685,-0.6342852115631104,-1.2843791246414185,-1.036928653717041,-0.25159305334091187,-0.8700478076934814,0.4447811543941498,-1.38917875289917,-0.5076289772987366,-0.3632040023803711,-1.256561279296875,-0.008980020880699158,-0.36962172389030457]},"forgetMatrix":{"rows":20,"columns":44,"weights":[0.23641620576381683,0.45555251836776733,-0.7697752714157104,-0.03690876439213753,0.9082624316215515,0.13327158987522125,0.37701836228370667,-1.365661382675171,0.01568782702088356,0.089380644261837,-0.06301981210708618,-0.48475149273872375,0.13214826583862305,1.1957132816314697,-1.279574990272522,0.7016846537590027,0.1400703638792038,1.2100896835327148,-0.5201882719993591,1.1221047639846802,0.18950389325618744,-0.5425063967704773,0.5714226961135864,-0.03813200816512108,-0.7186992764472961,0.6024284958839417,1.2538336515426636,0.6236701607704163,-0.6786275506019592,0.8199574947357178,0.11152223497629166,-0.46645495295524597,-0.06654246896505356,-0.03459008410573006,0.6682597398757935,1.0077464580535889,0.4287365972995758,-0.7225951552391052,-0.7403771281242371,0.46803390979766846,-0.12829625606536865,0.4876784086227417,0.4622596204280853,0.2624642550945282,0.09057970345020294,-0.5012050271034241,0.15234822034835815,0.5693740248680115,-0.9199851155281067,-0.8986110687255859,-0.5563300251960754,-0.37132930755615234,-0.2540792226791382,1.1384515762329102,0.8444821238517761,-0.22050032019615173,-0.04854614660143852,0.03202119842171669,0.47843998670578003,0.9253854155540466,0.5225829482078552,-0.4581432640552521,-0.24159951508045197,1.5615819692611694,-0.7838928699493408,0.37503498792648315,0.40938666462898254,0.09364043176174164,-0.05370180681347847,-0.9941599369049072,0.0983927845954895,-0.43727752566337585,-1.0944631099700928,1.066564679145813,0.010111711919307709,-1.1065350770950317,0.9875885844230652,0.42815423011779785,-0.3251286745071411,1.324233055114746,-0.7090232372283936,0.4730035662651062,0.3019517958164215,1.1028128862380981,1.2892993688583374,-0.8535663485527039,-0.9415510892868042,-0.8191061019897461,0.6049752831459045,-1.0271401405334473,-0.7128632664680481,-0.2891657054424286,-0.7370291948318481,-0.4204700291156769,0.16508570313453674,0.3906124234199524,0.4503473937511444,-0.26694777607917786,-0.3832365572452545,0.2635192573070526,0.4148676097393036,-0.5497217774391174,0.500769853591919,1.2521021366119385,1.2846033573150635,-0.5736183524131775,-0.5135911703109741,1.7588722705841064,0.12832602858543396,0.9038929343223572,0.5351050496101379,-0.5741276144981384,0.03321993350982666,-0.9037556052207947,0.5566848516464233,-0.0508120022714138,-0.9595339894294739,0.929266631603241,0.4120260775089264,-1.8258895874023438,-0.3387032151222229,0.6166588664054871,-0.24110502004623413,0.6255852580070496,-0.07694295793771744,0.9931783080101013,0.3773074150085449,0.6780816912651062,-0.3137420415878296,-0.5985205173492432,0.13474659621715546,0.8870407342910767,0.7891045808792114,-0.8182528614997864,1.558122158050537,1.643221378326416,1.190407395362854,1.273497462272644,-1.7479058504104614,-0.5648453831672668,-0.09091223031282425,-0.8766714930534363,-0.5659969449043274,0.9549239873886108,0.895137369632721,0.03543836623430252,-2.5044915676116943,0.529692530632019,1.6272821426391602,1.1184123754501343,-0.2261044830083847,0.9958215355873108,-0.2962903082370758,0.9993288516998291,-2.4918112754821777,-0.7540231943130493,0.803727924823761,1.6189059019088745,-1.6973636150360107,-1.0157078504562378,-0.17287731170654297,1.0915429592132568,0.5547449588775635,-0.3127053678035736,-0.17603810131549835,-1.6794663667678833,0.22463713586330414,0.8368479609489441,0.20883257687091827,1.0004059076309204,1.8622965812683105,0.5099364519119263,0.04384034126996994,-0.06604722142219543,-0.524109959602356,-1.3309659957885742,2.6963043212890625,-0.14286860823631287,0.1855439841747284,0.3052346706390381,-0.5550942420959473,0.04483581334352493,0.47496843338012695,-0.45945924520492554,-0.08515268564224243,0.17361831665039062,0.6332981586456299,-0.383653461933136,1.5936579704284668,0.4559724032878876,-0.13102343678474426,0.7918933629989624,0.4868333041667938,0.09594304114580154,-0.7386178374290466,0.6265421509742737,-0.6616272330284119,-0.29073432087898254,0.06040647625923157,-1.1233834028244019,-0.19351592659950256,-0.3521522581577301,0.45208171010017395,-0.8237391114234924,-0.2769882082939148,0.8103570938110352,1.2308768033981323,-0.8960906267166138,0.6755698919296265,-0.3325369954109192,0.27858954668045044,0.9822121262550354,-0.5012422800064087,-0.022734656929969788,-0.33086907863616943,0.6413277983665466,0.06892739236354828,-0.051950596272945404,-0.1581169068813324,-0.6675806045532227,0.8880448341369629,-0.7759472727775574,0.9412157535552979,0.782587468624115,-1.2243608236312866,-0.40536966919898987,1.145845651626587,-0.27737441658973694,-1.1664701700210571,0.891453206539154,0.4053816795349121,-0.4097324013710022,0.6643291115760803,-0.5688098073005676,0.25361350178718567,0.9122796058654785,0.9790892004966736,-0.05999957025051117,-1.4525107145309448,1.2320729494094849,-0.4556134343147278,0.19315262138843536,0.2991141080856323,-0.6106014251708984,0.3647708296775818,-0.4869135320186615,1.2897428274154663,-0.7080075740814209,-1.2276180982589722,1.3963555097579956,0.6848629117012024,-1.0628775358200073,1.0339593887329102,0.10958657413721085,-0.056098826229572296,1.245599389076233,-1.4171593189239502,0.15193557739257812,0.29459884762763977,1.3708728551864624,0.7504276633262634,-0.021238332614302635,-0.9427451491355896,-0.9047102332115173,0.7970412373542786,0.06752894818782806,-0.4009917974472046,-0.384900838136673,0.6466345191001892,0.5233556032180786,0.44450876116752625,-1.0539954900741577,0.12778866291046143,-0.3058660924434662,-0.09589231014251709,-0.3705219030380249,0.644203782081604,0.3018629252910614,-1.480677604675293,0.7252087593078613,0.6670316457748413,0.9648783206939697,-1.2492918968200684,0.8207969665527344,0.2835223972797394,-0.11914782971143723,0.40103504061698914,-0.2964095175266266,-0.34995734691619873,0.7972670197486877,0.5518178939819336,0.5357158184051514,-0.9832140207290649,1.0751309394836426,0.6837495565414429,-0.7075408697128296,-0.47972291707992554,-0.2855205237865448,0.15719126164913177,0.9679204225540161,0.16463534533977509,-0.018369413912296295,-0.26474809646606445,0.7648051977157593,-0.49353936314582825,0.20661719143390656,-0.06766099482774734,0.4315575361251831,1.2236874103546143,0.23514029383659363,1.1762772798538208,1.8610851764678955,-0.8716006875038147,-0.3755660951137543,0.07912611216306686,-0.02143080160021782,-1.25655996799469,1.7558122873306274,0.6769528388977051,-0.25132811069488525,0.6160135269165039,0.4774112105369568,-0.5072922706604004,1.3550885915756226,1.0775747299194336,-0.1708935797214508,-0.006619487889111042,1.1336441040039062,-1.139345645904541,-0.6267126202583313,0.14352796971797943,-0.5280683040618896,-0.16826489567756653,-1.0834565162658691,0.1600257158279419,-1.3714795112609863,0.1406901776790619,0.8981251120567322,0.2706682085990906,-1.2272981405258179,1.2943559885025024,0.7874199151992798,0.579669177532196,0.6565459966659546,-0.40550464391708374,-0.47241586446762085,-0.7935364246368408,1.2580815553665161,0.23328572511672974,-1.0744949579238892,-0.7613252997398376,-1.885011911392212,0.8840546011924744,-1.3281116485595703,0.33570393919944763,1.0975048542022705,-0.7504774332046509,-0.6066408753395081,-0.08717672526836395,0.15036286413669586,-0.5900800824165344,0.7854793667793274,1.0314868688583374,0.5734452605247498,0.3570665121078491,-0.6177225112915039,0.18439055979251862,0.3520297408103943,0.3903282880783081,-0.532658040523529,-0.7354300618171692,0.6218365430831909,-1.2717870473861694,1.2835776805877686,-0.11230660229921341,-0.09449926018714905,0.5690047144889832,-0.7670930624008179,0.06582603603601456,-0.8619806170463562,-0.7831418514251709,0.7365967035293579,0.435311883687973,-0.5482102632522583,0.8323608636856079,0.5587490797042847,-0.3839705288410187,0.67616868019104,-1.262831211090088,1.7552871704101562,0.7591062188148499,0.5192411541938782,0.8936938047409058,-0.9732187986373901,-1.0846198797225952,-0.7778730392456055,0.2777116000652313,0.6300026178359985,-0.24134953320026398,1.0299596786499023,-1.007859706878662,-0.2394665777683258,0.18065178394317627,-0.9184418320655823,-1.978856086730957,2.503734588623047,0.7638447880744934,-0.5357651710510254,0.11834615468978882,1.334991693496704,0.26169222593307495,0.7934903502464294,0.3824537694454193,0.40977931022644043,-0.4740533232688904,0.7766402363777161,-0.4953767657279968,-0.7376294732093811,1.0389454364776611,0.26240643858909607,-0.6335909962654114,-1.5699272155761719,0.5329935550689697,-1.1463103294372559,-0.2758236229419708,1.0708807706832886,0.17567874491214752,-0.883573591709137,1.7128928899765015,2.0033161640167236,0.43042799830436707,0.8902118802070618,0.6578908562660217,-0.7902480959892273,-1.6855167150497437,1.035628080368042,-0.04317612946033478,-0.4612060785293579,-0.3145580589771271,-1.774733066558838,0.3742843270301819,-0.46695539355278015,0.890765905380249,0.36090168356895447,-1.2593753337860107,-1.0910587310791016,-0.8753727078437805,1.728019118309021,-0.542887806892395,0.5060253739356995,0.4855800271034241,1.4133274555206299,-0.03708958625793457,-1.4634639024734497,0.3743487596511841,-0.0374089740216732,0.3474017083644867,-1.0052015781402588,-0.7271718382835388,0.07148715108633041,-1.1857104301452637,0.4565879702568054,-1.4445277452468872,0.1084677129983902,0.8151179552078247,-0.9077854752540588,-0.9669350981712341,-0.6062278747558594,-0.43747058510780334,0.36382442712783813,0.3543621599674225,-0.013362056575715542,0.30186113715171814,1.1782073974609375,-1.4417104721069336,0.44905781745910645,-1.5983673334121704,0.7948542833328247,0.6033892631530762,0.31472939252853394,0.8045189380645752,-0.6750158071517944,-0.9648128747940063,-0.09865733981132507,1.7185847759246826,-0.05509860813617706,0.5131886601448059,0.5811153650283813,-0.009096747264266014,0.47445350885391235,0.18423570692539215,-1.0089772939682007,-0.7353135347366333,0.5346134305000305,-0.17165443301200867,-0.44086915254592896,0.539084255695343,0.3854787051677704,-0.6071015000343323,2.315789222717285,1.1546670198440552,0.28424859046936035,-0.9779075980186462,1.7896393537521362,0.05772038921713829,0.3063834607601166,-0.08157382905483246,-0.2980300188064575,0.5699584484100342,0.20251108705997467,1.5441255569458008,-0.19536447525024414,-0.516282320022583,2.5381009578704834,-0.007341040298342705,-2.4350740909576416,0.3578130304813385,-0.1633821576833725,0.12768524885177612,0.9976915717124939,-0.5740248560905457,-0.10250996798276901,-0.11576694250106812,1.417343020439148,-0.7789924740791321,-0.5072211027145386,-1.1803843975067139,-0.10270407050848007,0.6774444580078125,1.1501176357269287,-0.5573170185089111,-0.48790404200553894,1.1237260103225708,0.39323338866233826,-0.1252521425485611,-0.7165107727050781,-0.03866680711507797,-0.06267271935939789,0.3980627655982971,-0.22716856002807617,0.8203655481338501,0.7253539562225342,-1.3904658555984497,0.6797105669975281,0.054342806339263916,0.8123039603233337,-0.8548177480697632,0.8621578216552734,0.26930075883865356,-0.9891338348388672,0.7000870704650879,-0.7041568756103516,-0.39147868752479553,0.9324906468391418,1.1327992677688599,1.0602248907089233,-0.8885179758071899,0.5410934090614319,0.7060728669166565,-0.5233758091926575,-0.5518215894699097,-0.6283905506134033,-0.11451990157365799,0.9614657759666443,0.34561002254486084,-1.0274832248687744,-0.8479472398757935,0.5409222841262817,-0.7273582220077515,0.8325577974319458,0.2631911337375641,0.7724862694740295,-0.7111239433288574,-0.7160779237747192,1.0906193256378174,0.5369980335235596,-0.6223530769348145,-0.11771126836538315,0.33773860335350037,0.9467799067497253,-0.27407389879226685,-0.16960439085960388,0.72075355052948,0.14313283562660217,-0.8133906722068787,-0.3499588370323181,0.8643812537193298,-1.6315299272537231,-0.7295204997062683,-0.7000054121017456,0.7303228974342346,-1.288383960723877,-0.13518355786800385,0.6299315690994263,-0.6652703285217285,0.19145026803016663,0.8634276390075684,-0.2309112399816513,-0.49813875555992126,-0.568554162979126,0.3819953203201294,-1.4307867288589478,-0.5536797642707825,1.209116816520691,0.5510222911834717,-0.2248135656118393,-0.4885896146297455,-1.4903740882873535,-0.845619261264801,0.6375559568405151,0.3571397662162781,-1.009871482849121,0.5938298106193542,-0.40629369020462036,-0.8604755401611328,-0.5479451417922974,-0.5788803100585938,0.13115112483501434,-0.6245898604393005,0.3579918444156647,1.6938058137893677,-1.2772400379180908,-1.3896526098251343,-0.5604608654975891,0.6930621862411499,-0.8683021068572998,0.4384618103504181,1.0999019145965576,-0.520202100276947,-1.039336919784546,-0.47493642568588257,0.3568775951862335,1.302463412284851,-0.23666201531887054,-1.2827593088150024,0.3443987965583801,-0.9017921686172485,-0.20172636210918427,-0.04547102749347687,-0.3869165778160095,0.07180311530828476,1.3126081228256226,-0.09982924163341522,0.7677961587905884,-1.2271617650985718,0.40582165122032166,0.4611205756664276,-0.35500749945640564,-0.46513837575912476,-0.675653874874115,-1.0530060529708862,1.0782912969589233,-0.3440362811088562,0.6098698973655701,0.5167897939682007,0.4469497501850128,1.0728952884674072,1.3966155052185059,0.12878532707691193,1.3327746391296387,0.698704719543457,0.5720258951187134,-0.38339054584503174,-0.41488707065582275,0.5381137728691101,0.06289150565862656,0.0067675476893782616,-0.40836167335510254,0.33817416429519653,-0.5879945158958435,0.09247038513422012,-0.3155364692211151,1.0870882272720337,0.2817840278148651,-0.8270784616470337,1.5304043292999268,1.7175341844558716,0.4044716954231262,-1.1695151329040527,0.880239725112915,0.38678810000419617,-0.4726550281047821,0.09715832024812698,-1.0062434673309326,-0.2752912938594818,0.8019016981124878,0.1998581886291504,0.6623358130455017,-0.3335605263710022,1.1545783281326294,1.315199613571167,-1.475014328956604,-0.39034900069236755,-1.0093127489089966,0.08148106187582016,0.928775429725647,0.4696003198623657,-0.654314398765564,-0.4090554714202881,1.2742626667022705,-0.9194754958152771,-0.07330253720283508,-0.060134150087833405,1.1061484813690186,0.8798025250434875,0.29826509952545166,-0.4571496248245239,-0.36203834414482117,0.744644284248352,0.5772160291671753,0.3419077694416046,-1.0339374542236328,0.24096721410751343,-0.2429368495941162,-0.2601621448993683,-0.10238427668809891,0.9545779824256897,0.43437251448631287,-1.1128093004226685,0.7478692531585693,0.6134790778160095,0.828831136226654,-0.9472041726112366,1.023775577545166,0.2405615746974945,-0.31061410903930664,0.6376264691352844,-0.3438551127910614,-0.5323809385299683,0.6680034399032593,0.5575545430183411,0.255469411611557,-0.7462976574897766,0.707512617111206,0.8350452184677124,-0.3435834050178528,-0.5302901268005371,-0.33741825819015503,0.28192612528800964,1.1226742267608643,0.4191417098045349,-0.30630025267601013,-0.3654886484146118,0.6819710731506348,-0.14437785744667053,0.4376865327358246,0.25701427459716797,0.39317789673805237,1.149349331855774,0.05622733011841774,1.148438811302185,-0.22881324589252472,-0.5034578442573547,-0.11043164879083633,0.4918464720249176,-0.851854145526886,-0.9624207615852356,1.0626627206802368,0.9964590072631836,0.19231273233890533,1.3082187175750732,0.4062541425228119,-0.14315710961818695,1.339281678199768,0.3579709231853485,0.3341832756996155,-2.03456711769104,1.2124272584915161,-1.3136866092681885,0.289806604385376,0.2431250512599945,-0.9234457015991211,0.2646351456642151,-0.0323815755546093,0.6028873324394226,-0.38550227880477905,-1.1339062452316284,1.6176741123199463,1.2161551713943481,-1.9923075437545776,-0.33130478858947754,-0.4753429591655731,-1.1348010301589966,2.015000820159912,-0.8448758721351624,-0.6967399716377258,-0.07284902036190033,0.6345043778419495,-0.08652108162641525,-0.6541202068328857,-0.9158756732940674,-0.17099127173423767,-0.17479369044303894,-0.2120615690946579,-0.31054380536079407,0.15027302503585815,0.3114827871322632,-0.7213406562805176,-1.716060996055603,-0.11191374808549881,0.49599793553352356,-0.29421794414520264,-0.19852161407470703,1.119309663772583,0.889638364315033,-1.5297269821166992,-0.22375571727752686,1.4675917625427246,1.3810865879058838,-0.2661568522453308,-0.6188329458236694,1.2402842044830322,-0.5893768668174744,0.8122919201850891,-0.8818500638008118,-0.830114483833313,1.1884548664093018,0.30036935210227966,-1.0091376304626465,0.5177309513092041,-1.072542428970337,0.9548450708389282,1.060753583908081,-1.239991307258606,-0.15829606354236603,0.011204901151359081,-0.9061425924301147,0.8242889046669006,-0.6722755432128906,0.8702073097229004,1.0284830331802368,0.6839573979377747,0.06842753291130066,-0.4752403497695923,-1.3032395839691162,0.23016878962516785,-0.31002476811408997,-0.5657878518104553,0.24181118607521057,0.5481414198875427,-0.3911651372909546,-2.0684826374053955,-2.610452651977539,-0.5924570560455322,0.12801559269428253,-0.4691419303417206,0.2095155417919159,3.3514912128448486,0.5095442533493042,-2.4847941398620605,0.7087231278419495,0.49351051449775696,1.3248941898345947,0.39687833189964294,0.8495274782180786,0.5316214561462402,0.05201130360364914,0.5382875800132751,0.1176334097981453,-0.4366064965724945,0.16737228631973267,0.1543945074081421,-1.1896954774856567,0.13172630965709686,-0.31904664635658264,-0.5019150376319885,0.9864252805709839,0.17161937057971954,-0.25200700759887695,0.36347058415412903,-1.3361097574234009,-0.44784560799598694,-0.3490094244480133,0.9331626296043396,1.5131653547286987,-0.8373614549636841,2.1250545978546143,-0.6573814153671265,0.09409157931804657,0.391801655292511]},"forgetHidden":{"rows":20,"columns":20,"weights":[-0.7170751094818115,0.30034956336021423,-0.40962859988212585,-0.11975910514593124,-0.31360605359077454,-0.4860866665840149,0.47871196269989014,0.10688868910074234,0.5088621973991394,-0.04499012231826782,0.45736780762672424,-0.22381767630577087,-0.30927804112434387,-0.540847897529602,-0.462109237909317,-0.3027219772338867,0.43071481585502625,0.12136980146169662,0.25899070501327515,-0.8465467095375061,0.29888156056404114,-0.519786536693573,0.3782409131526947,0.7799142599105835,0.6155751347541809,-1.322766661643982,-0.6180256009101868,-0.10649004578590393,0.8671073913574219,0.6323232054710388,0.5113579034805298,0.6326854825019836,0.014216292649507523,0.2415652573108673,-0.12084443867206573,-0.2830701172351837,-0.6870595812797546,-1.1390659809112549,-0.08134950697422028,0.024621352553367615,0.038957152515649796,-0.49048924446105957,0.6916317343711853,-0.5281936526298523,-0.041640106588602066,-0.7133157253265381,0.6932482719421387,0.14260603487491608,0.5937530398368835,0.2454262524843216,-0.09489548951387405,0.18223534524440765,-0.5681917667388916,-0.5248968601226807,-1.0668543577194214,-0.1735106110572815,0.49699053168296814,-0.022733021527528763,0.4005758464336395,-0.17265291512012482,-0.5746273398399353,0.714631974697113,-1.0718945264816284,-0.002471341285854578,-1.0543370246887207,0.36211246252059937,0.5784295201301575,0.3775399327278137,0.29331862926483154,0.4837183654308319,-0.27696457505226135,-1.5350415706634521,-1.440385103225708,-0.41432422399520874,-0.0771980807185173,-0.3465976417064667,1.0549057722091675,-0.5439227819442749,-1.2572296857833862,-0.7640793919563293,-0.18240022659301758,0.42511531710624695,-1.3162630796432495,0.3599694073200226,-0.2754756212234497,-0.45509007573127747,1.135740041732788,-0.6421145796775818,0.6656301021575928,0.30049848556518555,0.9158100485801697,0.1029035821557045,0.022736040875315666,-0.14976510405540466,-0.43113255500793457,-0.167939692735672,1.0624840259552002,-0.39593952894210815,0.8948588967323303,-0.9299449324607849,2.4507391452789307,-0.9037691354751587,2.370893955230713,0.5372669696807861,1.3635133504867554,-0.43462416529655457,-3.3242437839508057,-0.7500448226928711,0.8319030404090881,-0.2357856035232544,-1.1517610549926758,0.8311923742294312,0.8763461709022522,0.9691540002822876,0.3271525800228119,-1.652574062347412,-1.8822194337844849,-1.2593622207641602,-3.2675790786743164,1.3403314352035522,-0.20660753548145294,0.049933113157749176,-0.18271152675151825,-0.019835952669382095,-0.4792672097682953,0.07070889323949814,0.35558927059173584,-0.4047276973724365,0.5621823072433472,0.7866925597190857,0.23017318546772003,-0.35724717378616333,-0.5240501165390015,0.23202089965343475,0.1878909468650818,-0.002845942508429289,0.7448626756668091,0.02279680408537388,0.331391304731369,-0.28464436531066895,0.18363811075687408,-0.497989684343338,0.9807164072990417,0.2864093780517578,1.4465892314910889,-0.39912888407707214,-0.7863393425941467,-0.29950565099716187,-2.0214040279388428,-0.22195890545845032,-0.6891772747039795,0.13566970825195312,1.0004323720932007,0.8349305391311646,0.6835862398147583,-1.851675271987915,-0.08159270882606506,-0.06587313860654831,-1.2092418670654297,1.3750609159469604,0.14043425023555756,0.5105310678482056,-0.14438673853874207,0.13767768442630768,0.10189125686883926,-0.2576952576637268,0.4318302273750305,-0.9483618140220642,0.06627260893583298,1.1134756803512573,0.40802082419395447,-0.10625670850276947,-0.31445175409317017,0.9494575262069702,0.21081916987895966,-0.6994038224220276,0.9086275100708008,-0.5275311470031738,-0.31244099140167236,-0.12865692377090454,-0.09205389022827148,-2.137012243270874,-0.11375100910663605,0.35915374755859375,1.1552491188049316,-0.5773400068283081,0.15456974506378174,0.36820098757743835,-1.2499908208847046,0.4880492091178894,-1.5087008476257324,0.014554132707417011,-0.056326720863580704,0.7817032337188721,0.07616044580936432,-0.686387836933136,0.4126427471637726,-0.21502694487571716,-0.6567741632461548,0.6186733245849609,-1.068442702293396,1.8481680154800415,-0.9587736129760742,-2.0903232097625732,-2.248328447341919,1.3568459749221802,1.2867032289505005,0.8408147692680359,1.1195271015167236,0.23429439961910248,1.0409092903137207,-1.9981679916381836,-0.9561545252799988,0.11130687594413757,-0.7049252986907959,0.19499699771404266,1.2605900764465332,0.591472864151001,1.6892871856689453,-1.0177007913589478,0.11736693233251572,0.4238346219062805,0.15758538246154785,-0.2831522822380066,-0.769435465335846,-0.040442366153001785,0.19007156789302826,-0.7437469363212585,0.5417856574058533,0.7577856779098511,1.7040067911148071,0.11971740424633026,-0.10001001507043839,-0.11146803200244904,-0.36778318881988525,-0.6674889326095581,-0.035020388662815094,-0.620654284954071,0.2604561448097229,-1.0092920064926147,-0.05344594642519951,0.8179617524147034,-0.08656927198171616,-0.8970160484313965,-0.7281181216239929,-0.45846036076545715,0.3086807429790497,0.1618538647890091,-0.35579758882522583,0.3293922245502472,0.030667390674352646,-0.49071040749549866,-0.866118848323822,0.224197119474411,-0.056219976395368576,0.10890811681747437,0.15929004549980164,0.061898697167634964,0.439176082611084,-0.8957188725471497,-0.5446835160255432,0.5170036554336548,-0.7631386518478394,0.8380979299545288,-0.37527042627334595,-0.5300852060317993,0.6048348546028137,0.9953516125679016,1.1973179578781128,0.05061661824584007,0.06772084534168243,-0.32261914014816284,-1.2086713314056396,-0.7473522424697876,-0.9060735106468201,-0.34758472442626953,0.49697816371917725,-1.1320337057113647,1.234386682510376,-0.7333564758300781,0.04989783465862274,0.19627521932125092,-0.16572445631027222,-0.12546856701374054,-0.44246789813041687,-0.38125139474868774,0.04399864375591278,-0.17273366451263428,0.6059411764144897,0.7634697556495667,0.1398904174566269,0.391696959733963,-0.42507970333099365,-0.04752210155129433,0.4550201892852783,-1.0747956037521362,0.14798381924629211,-1.4993911981582642,0.549787163734436,-1.769845962524414,0.3475415110588074,-0.2414190024137497,-0.003491278737783432,0.2247433215379715,0.08379846811294556,-0.561227560043335,0.14579027891159058,0.23886553943157196,-0.7610484957695007,0.6676427721977234,-0.4671858251094818,-0.028871940448880196,0.018839867785573006,0.8246699571609497,-0.29969820380210876,0.19551770389080048,0.43657082319259644,-0.16528433561325073,0.2227374017238617,0.16331514716148376,0.007454151287674904,0.18159465491771698,-0.22004914283752441,-0.3703165650367737,0.006573681719601154,0.07548689842224121,0.1367272138595581,0.024283546954393387,0.281328946352005,0.5124786496162415,0.6396994590759277,0.02516256272792816,-0.009782722219824791,-0.07787168025970459,0.14328309893608093,-0.1884571611881256,0.16113770008087158,0.12116734683513641,-0.07376819103956223,-0.4779220223426819,2.5247018337249756,-0.8968871831893921,0.18262293934822083,-1.885114073753357,2.0947518348693848,0.9998537302017212,-1.940320611000061,-1.2966586351394653,2.5786309242248535,-0.822891116142273,-2.7034082412719727,1.0880919694900513,0.2766248881816864,0.5961375832557678,-0.0909208133816719,-1.0302929878234863,-2.6963086128234863,1.5449668169021606,-3.0828211307525635,-0.6233839988708496,-0.15372999012470245,-0.08893495798110962,0.25220850110054016,-0.8111253976821899,-0.6902279853820801,-0.5561707019805908,-0.06246425583958626,-0.44906583428382874,0.3586963415145874,0.1488318294286728,-0.07867597788572311,-0.3507089912891388,-0.3040313422679901,-0.48534074425697327,-0.371205598115921,-0.2854931354522705,0.056588105857372284,-0.06699125468730927,0.34123724699020386,-1.315137267112732,-0.5109686851501465,0.3867019712924957,0.65754234790802,-1.4895762205123901,-0.9553520679473877,1.739729881286621,-0.1758754700422287,1.1459356546401978,-0.09847922623157501,-0.5492376685142517,0.7730423212051392,-0.5284735560417175,0.47910845279693604,0.18810637295246124,-0.3888162672519684,1.770042896270752,0.06862978637218475,0.25271740555763245,0.20776166021823883,0.05393311381340027]},"forgetBias":{"rows":20,"columns":1,"weights":[0,0,0,0,0,0,0,0,0,0,0,0,0,0,0,0,0,0,0,0]},"outputMatrix":{"rows":20,"columns":44,"weights":[-0.2909619212150574,-0.04886198416352272,1.3099337816238403,2.7218918800354004,-0.6549420356750488,-0.3480450212955475,-0.25256025791168213,-0.35537394881248474,-1.7240891456604004,1.67454195022583,1.9469503164291382,-0.023096220567822456,-0.6513962745666504,-0.5234155654907227,-0.1190328449010849,-0.9773733019828796,-1.2786118984222412,0.5280665159225464,-0.2744773328304291,-0.2769348919391632,-0.987052857875824,-0.2672560513019562,0.10560048371553421,0.5044875741004944,-0.10665299743413925,-0.3753068149089813,1.3986988067626953,0.29575464129447937,-0.17715662717819214,-0.001935509848408401,-0.8122362494468689,0.6539236307144165,0.477982759475708,0.687552273273468,0.014975661411881447,0.47132885456085205,-0.49240919947624207,0.08810175210237503,0.5086987018585205,0.9528652429580688,1.6708054542541504,0.463358610868454,0.22227072715759277,-1.5253477096557617,1.0382411479949951,0.7282378077507019,-0.23669381439685822,0.017682930454611778,0.7679766416549683,-0.09802538901567459,0.11276144534349442,-1.6062593460083008,0.21635828912258148,-0.5658999085426331,0.685872495174408,0.010110733099281788,0.4767051935195923,0.8928475975990295,-0.8775144815444946,1.4590020179748535,0.28496742248535156,1.285817265510559,-0.06791412085294724,2.0710177421569824,0.5906927585601807,-0.8958689570426941,0.5892157554626465,-0.11594678461551666,-0.5659441947937012,0.4179815351963043,1.222711443901062,1.2240676879882812,-0.4738357663154602,1.0393747091293335,0.06786921620368958,-2.014603853225708,-0.5340017080307007,-1.0344736576080322,0.0876188650727272,0.6942596435546875,0.7267455458641052,-0.3430125117301941,-0.10828430950641632,0.8314856886863708,-0.16154150664806366,-0.28981438279151917,-0.49946004152297974,0.21216320991516113,-0.866679847240448,0.11658597737550735,-0.6307452321052551,-0.05053539574146271,-0.009696286171674728,1.0124627351760864,-0.13946886360645294,0.09154058992862701,-0.4696398675441742,0.3571712374687195,-1.0119377374649048,-0.5281880497932434,0.007637780159711838,0.2723304033279419,-0.7461246252059937,0.4851993918418884,0.9011551141738892,-0.2235998958349228,-0.11074857413768768,1.3664124011993408,0.5402840375900269,-0.1469336748123169,1.1262680292129517,-0.05859081447124481,-0.38225406408309937,-0.6631188988685608,-0.30290523171424866,0.2739065885543823,-0.4596268832683563,1.3547910451889038,0.27654892206192017,-0.9266835451126099,-0.4729054272174835,0.900847315788269,0.3581371009349823,2.253384828567505,1.0123642683029175,-1.0035862922668457,-1.5471649169921875,1.261028528213501,-0.9755848050117493,-0.1368345022201538,0.3884255886077881,0.08056939393281937,0.35424184799194336,0.4666922688484192,-1.204978346824646,-1.4902170896530151,0.17627838253974915,1.9483083486557007,2.23421573638916,-0.19965331256389618,1.5340527296066284,-1.8770760297775269,-1.522679090499878,-1.0554709434509277,0.5377401113510132,0.6823065876960754,-1.4147135019302368,0.13481445610523224,0.03228471800684929,1.3973723649978638,-0.22630532085895538,-0.04720529913902283,2.3365161418914795,-0.4654264748096466,0.5909383296966553,-0.2831624746322632,-0.546771764755249,1.8934133052825928,0.1811702400445938,1.3134851455688477,0.4529753029346466,0.24514023959636688,0.41646116971969604,0.2196139395236969,-0.9688798785209656,-1.0457324981689453,1.5468860864639282,-0.27774932980537415,0.7679516077041626,-0.42504170536994934,-0.03046083264052868,0.14019598066806793,-1.011651873588562,0.7516500353813171,0.4825034737586975,1.7097327709197998,1.002846598625183,0.7160109877586365,-0.0967688113451004,0.11769020557403564,0.7116760611534119,-0.109689861536026,-0.6036990284919739,-0.4134919345378876,0.627608597278595,-1.1288750171661377,-0.6876999139785767,0.5745163559913635,1.5249013900756836,-0.11358772218227386,-0.9645299911499023,0.524997889995575,0.7422326803207397,0.3368476927280426,-1.4353734254837036,0.8783499598503113,-0.5047279596328735,-0.44421881437301636,0.00047573322081007063,-1.6966816186904907,-0.25086966156959534,0.7844762206077576,0.23406954109668732,0.6835659742355347,-1.3869456052780151,1.1256986856460571,1.3082157373428345,-0.9917935132980347,-1.5176069736480713,-0.50370854139328,-0.4011420011520386,1.2106508016586304,-0.13248853385448456,-0.7577298879623413,0.2962549030780792,0.9754024147987366,0.06325075030326843,1.1875519752502441,-0.0004174372006673366,0.5033147931098938,-0.9483059644699097,1.2024462223052979,-1.4786553382873535,-0.7334994673728943,-0.542530357837677,0.26596441864967346,-0.8273813724517822,0.09683182090520859,1.0724900960922241,-0.5967509746551514,-2.0450196266174316,-0.3597944676876068,-0.8241901993751526,-0.364312082529068,0.10346545279026031,-0.9892387986183167,-1.020421028137207,0.3282407820224762,0.6790681481361389,-0.8240686058998108,0.40812772512435913,-1.4921315908432007,1.9798341989517212,0.509591817855835,-1.2352880239486694,0.5745894312858582,0.45919570326805115,1.9219759702682495,0.24411725997924805,-0.7936084270477295,-0.5600701570510864,0.715986967086792,-1.7470581531524658,-0.10435165464878082,0.6853806972503662,-0.6966999173164368,0.5141844749450684,-1.4816110134124756,-0.6901901960372925,-0.9379252791404724,-0.3336907923221588,0.7213931083679199,0.8863218426704407,1.5517884492874146,-0.5793901681900024,-0.8031048774719238,0.7643865942955017,1.2259982824325562,-1.0368835926055908,-0.9077854752540588,-1.1054041385650635,0.1471283882856369,-1.404831051826477,1.1283081769943237,1.3818445205688477,1.3277051448822021,-0.14352144300937653,-1.2601698637008667,0.72474604845047,-0.6588701009750366,0.18379904329776764,0.14257502555847168,-0.14634744822978973,0.3893284797668457,-0.5857419967651367,0.46126073598861694,-0.004578353371471167,0.6406518220901489,-0.1594146192073822,-1.1227623224258423,0.25166162848472595,-0.8317323923110962,-0.2768874764442444,0.36559540033340454,-0.2605467438697815,0.7268461585044861,0.9164468050003052,1.5637681484222412,-0.03262121602892876,0.43345212936401367,-0.8638898134231567,0.6427506804466248,0.6855954527854919,-0.3116910457611084,2.4331459999084473,0.09708257019519806,0.5619034767150879,-1.6263833045959473,-0.14796647429466248,-1.1675059795379639,1.2435492277145386,1.0053032636642456,-0.621264636516571,-0.9950395822525024,-1.4395434856414795,1.4798600673675537,-0.8790924549102783,0.9798234105110168,0.2403249591588974,0.6672679781913757,-0.03272051736712456,-1.1600173711776733,1.476102590560913,-0.07501272112131119,-0.4748714864253998,-1.5253050327301025,-0.30614104866981506,-0.12967108190059662,-0.9302464127540588,0.6584386229515076,-1.8434069156646729,0.021228747442364693,1.3520952463150024,-0.6990786790847778,-1.2906492948532104,-0.57850581407547,-0.3254050612449646,0.1560988575220108,-0.20384375751018524,0.05092569813132286,0.611291229724884,0.7840431928634644,-1.2756503820419312,0.6293598413467407,-0.4696079194545746,1.4976176023483276,1.5694496631622314,0.08850827813148499,1.1851613521575928,-0.4567033350467682,-0.6660483479499817,-0.733344554901123,1.682990550994873,-0.3320332467556,-0.28373128175735474,0.1670445203781128,0.18706011772155762,0.220729798078537,-0.10926435887813568,-0.925086498260498,-0.9797589778900146,0.5306620001792908,0.09764139354228973,-0.1905106008052826,0.6792123913764954,